digraph Tree {
node [shape=box, style="filled", color="black", fontname="helvetica"] ;
edge [fontname="helvetica"] ;
0 [label="pre_spike_damage_for_self_used <= 0.5\ngini = 0.743\nsamples = 23167\nvalue = [5377, 6395, 4445, 6950]\nclass = Initiators", fillcolor="#fef8fe"] ;
1 [label="self_pre_spike_total_ability_usage_3 <= 1.5\ngini = 0.714\nsamples = 17397\nvalue = [4265, 5680, 1693, 5759]\nclass = Initiators", fillcolor="#fffeff"] ;
0 -> 1 [labeldistance=2.5, labelangle=45, headlabel="True"] ;
2 [label="pre_spike_crowd_control_vision_used <= 0.5\ngini = 0.718\nsamples = 14957\nvalue = [4198, 3959, 1584, 5216]\nclass = Initiators", fillcolor="#fbecfd"] ;
1 -> 2 ;
3 [label="self_pre_spike_total_ability_usage_1 <= 1.5\ngini = 0.717\nsamples = 9738\nvalue = [3534, 2365, 1089, 2750]\nclass = Sentinels", fillcolor="#fcf1e9"] ;
2 -> 3 ;
4 [label="pre_spike_information_used <= 0.5\ngini = 0.712\nsamples = 9300\nvalue = [3518, 1943, 1089, 2750]\nclass = Sentinels", fillcolor="#fcf0e8"] ;
3 -> 4 ;
5 [label="ally1_pre_spike_total_health_loss <= 2.0\ngini = 0.714\nsamples = 7929\nvalue = [3139, 1871, 1043, 1876]\nclass = Sentinels", fillcolor="#fae5d6"] ;
4 -> 5 ;
6 [label="self_pre_spike_movement_metric <= 0.5\ngini = 0.533\nsamples = 742\nvalue = [66, 484, 85, 107]\nclass =  Controllers", fillcolor="#92f089"] ;
5 -> 6 ;
7 [label="self_post_spike_total_health_loss <= 198.0\ngini = 0.702\nsamples = 164\nvalue = [40, 12, 57, 55]\nclass = Duelists", fillcolor="#fbfdff"] ;
6 -> 7 ;
8 [label="ally4_pre_spike_avg_health <= 76.575\ngini = 0.701\nsamples = 147\nvalue = [40, 10, 43, 54]\nclass = Initiators", fillcolor="#fbeafc"] ;
7 -> 8 ;
9 [label="self_pre_spike_deaths <= 0.5\ngini = 0.535\nsamples = 43\nvalue = [0, 3, 25, 15]\nclass = Duelists", fillcolor="#b8dcf6"] ;
8 -> 9 ;
10 [label="ally2_pre_spike_headshots <= 0.5\ngini = 0.424\nsamples = 30\nvalue = [0, 3, 22, 5]\nclass = Duelists", fillcolor="#78bced"] ;
9 -> 10 ;
11 [label="self_pre_spike_avg_health <= 57.0\ngini = 0.272\nsamples = 26\nvalue = [0, 2, 22, 2]\nclass = Duelists", fillcolor="#5aade9"] ;
10 -> 11 ;
12 [label="ally4_post_spike_ultimate_usage <= 1.0\ngini = 0.087\nsamples = 22\nvalue = [0, 0, 21, 1]\nclass = Duelists", fillcolor="#42a2e6"] ;
11 -> 12 ;
13 [label="gini = 0.0\nsamples = 21\nvalue = [0, 0, 21, 0]\nclass = Duelists", fillcolor="#399de5"] ;
12 -> 13 ;
14 [label="gini = 0.0\nsamples = 1\nvalue = [0, 0, 0, 1]\nclass = Initiators", fillcolor="#d739e5"] ;
12 -> 14 ;
15 [label="gini = 0.625\nsamples = 4\nvalue = [0, 2, 1, 1]\nclass =  Controllers", fillcolor="#c2f6bd"] ;
11 -> 15 ;
16 [label="gini = 0.375\nsamples = 4\nvalue = [0, 1, 0, 3]\nclass = Initiators", fillcolor="#e47bee"] ;
10 -> 16 ;
17 [label="self_pre_spike_total_firing_time <= 1100.0\ngini = 0.355\nsamples = 13\nvalue = [0, 0, 3, 10]\nclass = Initiators", fillcolor="#e374ed"] ;
9 -> 17 ;
18 [label="gini = 0.0\nsamples = 2\nvalue = [0, 0, 2, 0]\nclass = Duelists", fillcolor="#399de5"] ;
17 -> 18 ;
19 [label="ally3_pre_spike_elims <= 1.5\ngini = 0.165\nsamples = 11\nvalue = [0, 0, 1, 10]\nclass = Initiators", fillcolor="#db4de8"] ;
17 -> 19 ;
20 [label="gini = 0.0\nsamples = 10\nvalue = [0, 0, 0, 10]\nclass = Initiators", fillcolor="#d739e5"] ;
19 -> 20 ;
21 [label="gini = 0.0\nsamples = 1\nvalue = [0, 0, 1, 0]\nclass = Duelists", fillcolor="#399de5"] ;
19 -> 21 ;
22 [label="ally3_pre_spike_avg_health <= 87.861\ngini = 0.677\nsamples = 104\nvalue = [40, 7, 18, 39]\nclass = Sentinels", fillcolor="#fffdfc"] ;
8 -> 22 ;
23 [label="self_pre_spike_total_credits_loss <= 75.0\ngini = 0.452\nsamples = 36\nvalue = [25, 0, 9, 2]\nclass = Sentinels", fillcolor="#f0b48a"] ;
22 -> 23 ;
24 [label="self_post_spike_total_loadout_value_loss <= 125.0\ngini = 0.494\nsamples = 9\nvalue = [1, 0, 6, 2]\nclass = Duelists", fillcolor="#8ec7f0"] ;
23 -> 24 ;
25 [label="self_pre_spike_total_health_loss <= 6.5\ngini = 0.245\nsamples = 7\nvalue = [0, 0, 6, 1]\nclass = Duelists", fillcolor="#5aade9"] ;
24 -> 25 ;
26 [label="gini = 0.0\nsamples = 1\nvalue = [0, 0, 0, 1]\nclass = Initiators", fillcolor="#d739e5"] ;
25 -> 26 ;
27 [label="gini = 0.0\nsamples = 6\nvalue = [0, 0, 6, 0]\nclass = Duelists", fillcolor="#399de5"] ;
25 -> 27 ;
28 [label="gini = 0.5\nsamples = 2\nvalue = [1, 0, 0, 1]\nclass = Sentinels", fillcolor="#ffffff"] ;
24 -> 28 ;
29 [label="self_pre_spike_avg_credits <= 2958.0\ngini = 0.198\nsamples = 27\nvalue = [24, 0, 3, 0]\nclass = Sentinels", fillcolor="#e89152"] ;
23 -> 29 ;
30 [label="ally2_post_spike_max_health_loss <= 49.5\ngini = 0.077\nsamples = 25\nvalue = [24, 0, 1, 0]\nclass = Sentinels", fillcolor="#e68641"] ;
29 -> 30 ;
31 [label="gini = 0.0\nsamples = 24\nvalue = [24, 0, 0, 0]\nclass = Sentinels", fillcolor="#e58139"] ;
30 -> 31 ;
32 [label="gini = 0.0\nsamples = 1\nvalue = [0, 0, 1, 0]\nclass = Duelists", fillcolor="#399de5"] ;
30 -> 32 ;
33 [label="gini = 0.0\nsamples = 2\nvalue = [0, 0, 2, 0]\nclass = Duelists", fillcolor="#399de5"] ;
29 -> 33 ;
34 [label="self_total_firing_time <= 9800.0\ngini = 0.627\nsamples = 68\nvalue = [15, 7, 9, 37]\nclass = Initiators", fillcolor="#eeadf4"] ;
22 -> 34 ;
35 [label="opponent4_post_spike_deaths <= 0.5\ngini = 0.7\nsamples = 52\nvalue = [14, 7, 9, 22]\nclass = Initiators", fillcolor="#f7d5fa"] ;
34 -> 35 ;
36 [label="round_info_round_start <= 29999.5\ngini = 0.652\nsamples = 45\nvalue = [14, 2, 8, 21]\nclass = Initiators", fillcolor="#f6d2f9"] ;
35 -> 36 ;
37 [label="gini = 0.375\nsamples = 8\nvalue = [0, 2, 0, 6]\nclass = Initiators", fillcolor="#e47bee"] ;
36 -> 37 ;
38 [label="gini = 0.646\nsamples = 37\nvalue = [14, 0, 8, 15]\nclass = Initiators", fillcolor="#fdf6fe"] ;
36 -> 38 ;
39 [label="self_post_spike_longest_inv_state_secondary <= 0.5\ngini = 0.449\nsamples = 7\nvalue = [0, 5, 1, 1]\nclass =  Controllers", fillcolor="#84ee7b"] ;
35 -> 39 ;
40 [label="gini = 0.0\nsamples = 5\nvalue = [0, 5, 0, 0]\nclass =  Controllers", fillcolor="#47e539"] ;
39 -> 40 ;
41 [label="gini = 0.5\nsamples = 2\nvalue = [0, 0, 1, 1]\nclass = Duelists", fillcolor="#ffffff"] ;
39 -> 41 ;
42 [label="self_post_spike_max_ammo_reserve_loss <= 75.0\ngini = 0.117\nsamples = 16\nvalue = [1, 0, 0, 15]\nclass = Initiators", fillcolor="#da46e7"] ;
34 -> 42 ;
43 [label="gini = 0.0\nsamples = 15\nvalue = [0, 0, 0, 15]\nclass = Initiators", fillcolor="#d739e5"] ;
42 -> 43 ;
44 [label="gini = 0.0\nsamples = 1\nvalue = [1, 0, 0, 0]\nclass = Sentinels", fillcolor="#e58139"] ;
42 -> 44 ;
45 [label="ally3_pre_spike_max_health_loss <= 50.0\ngini = 0.304\nsamples = 17\nvalue = [0, 2, 14, 1]\nclass = Duelists", fillcolor="#61b1ea"] ;
7 -> 45 ;
46 [label="self_pre_spike_avg_credits <= 1312.5\ngini = 0.124\nsamples = 15\nvalue = [0, 0, 14, 1]\nclass = Duelists", fillcolor="#47a4e7"] ;
45 -> 46 ;
47 [label="gini = 0.0\nsamples = 14\nvalue = [0, 0, 14, 0]\nclass = Duelists", fillcolor="#399de5"] ;
46 -> 47 ;
48 [label="gini = 0.0\nsamples = 1\nvalue = [0, 0, 0, 1]\nclass = Initiators", fillcolor="#d739e5"] ;
46 -> 48 ;
49 [label="gini = 0.0\nsamples = 2\nvalue = [0, 2, 0, 0]\nclass =  Controllers", fillcolor="#47e539"] ;
45 -> 49 ;
50 [label="self_pre_spike_total_loadout_value_loss <= 100.0\ngini = 0.321\nsamples = 578\nvalue = [26, 472, 28, 52]\nclass =  Controllers", fillcolor="#6cea61"] ;
6 -> 50 ;
51 [label="self_post_spike_avg_ammo_mag <= 15.208\ngini = 0.679\nsamples = 45\nvalue = [11, 5, 8, 21]\nclass = Initiators", fillcolor="#f3c5f7"] ;
50 -> 51 ;
52 [label="ally4_pre_spike_elims <= 0.5\ngini = 0.727\nsamples = 30\nvalue = [11, 5, 8, 6]\nclass = Sentinels", fillcolor="#fbeee4"] ;
51 -> 52 ;
53 [label="round_info_round_length <= 56218.0\ngini = 0.67\nsamples = 19\nvalue = [9, 5, 2, 3]\nclass = Sentinels", fillcolor="#f8dbc6"] ;
52 -> 53 ;
54 [label="self_pre_spike_avg_ammo_reserve <= 51.0\ngini = 0.708\nsamples = 12\nvalue = [3, 5, 2, 2]\nclass =  Controllers", fillcolor="#d6f9d3"] ;
53 -> 54 ;
55 [label="self_total_firing_time <= 3300.0\ngini = 0.531\nsamples = 8\nvalue = [0, 5, 2, 1]\nclass =  Controllers", fillcolor="#a3f29c"] ;
54 -> 55 ;
56 [label="gini = 0.625\nsamples = 4\nvalue = [0, 1, 2, 1]\nclass = Duelists", fillcolor="#bddef6"] ;
55 -> 56 ;
57 [label="gini = 0.0\nsamples = 4\nvalue = [0, 4, 0, 0]\nclass =  Controllers", fillcolor="#47e539"] ;
55 -> 57 ;
58 [label="gini = 0.375\nsamples = 4\nvalue = [3, 0, 0, 1]\nclass = Sentinels", fillcolor="#eeab7b"] ;
54 -> 58 ;
59 [label="ally2_pre_spike_avg_health <= 81.207\ngini = 0.245\nsamples = 7\nvalue = [6, 0, 0, 1]\nclass = Sentinels", fillcolor="#e9965a"] ;
53 -> 59 ;
60 [label="gini = 0.0\nsamples = 1\nvalue = [0, 0, 0, 1]\nclass = Initiators", fillcolor="#d739e5"] ;
59 -> 60 ;
61 [label="gini = 0.0\nsamples = 6\nvalue = [6, 0, 0, 0]\nclass = Sentinels", fillcolor="#e58139"] ;
59 -> 61 ;
62 [label="ally2_pre_spike_first_bloods <= 0.5\ngini = 0.595\nsamples = 11\nvalue = [2, 0, 6, 3]\nclass = Duelists", fillcolor="#b5daf5"] ;
52 -> 62 ;
63 [label="self_total_firing_time <= 1100.0\ngini = 0.444\nsamples = 9\nvalue = [0, 0, 6, 3]\nclass = Duelists", fillcolor="#9ccef2"] ;
62 -> 63 ;
64 [label="gini = 0.0\nsamples = 2\nvalue = [0, 0, 0, 2]\nclass = Initiators", fillcolor="#d739e5"] ;
63 -> 64 ;
65 [label="self_pre_spike_avg_loadout_value <= 158.333\ngini = 0.245\nsamples = 7\nvalue = [0, 0, 6, 1]\nclass = Duelists", fillcolor="#5aade9"] ;
63 -> 65 ;
66 [label="gini = 0.0\nsamples = 1\nvalue = [0, 0, 0, 1]\nclass = Initiators", fillcolor="#d739e5"] ;
65 -> 66 ;
67 [label="gini = 0.0\nsamples = 6\nvalue = [0, 0, 6, 0]\nclass = Duelists", fillcolor="#399de5"] ;
65 -> 67 ;
68 [label="gini = 0.0\nsamples = 2\nvalue = [2, 0, 0, 0]\nclass = Sentinels", fillcolor="#e58139"] ;
62 -> 68 ;
69 [label="gini = 0.0\nsamples = 15\nvalue = [0, 0, 0, 15]\nclass = Initiators", fillcolor="#d739e5"] ;
51 -> 69 ;
70 [label="ally3_pre_spike_avg_health <= 63.896\ngini = 0.227\nsamples = 533\nvalue = [15, 467, 20, 31]\nclass =  Controllers", fillcolor="#5fe853"] ;
50 -> 70 ;
71 [label="self_pre_spike_map_covered <= 0.087\ngini = 0.713\nsamples = 30\nvalue = [3, 10, 10, 7]\nclass =  Controllers", fillcolor="#ffffff"] ;
70 -> 71 ;
72 [label="self_pre_spike_max_loadout_value_loss <= 1850.0\ngini = 0.165\nsamples = 11\nvalue = [1, 10, 0, 0]\nclass =  Controllers", fillcolor="#59e84d"] ;
71 -> 72 ;
73 [label="gini = 0.0\nsamples = 1\nvalue = [1, 0, 0, 0]\nclass = Sentinels", fillcolor="#e58139"] ;
72 -> 73 ;
74 [label="gini = 0.0\nsamples = 10\nvalue = [0, 10, 0, 0]\nclass =  Controllers", fillcolor="#47e539"] ;
72 -> 74 ;
75 [label="self_pre_spike_map_covered <= 0.229\ngini = 0.576\nsamples = 19\nvalue = [2, 0, 10, 7]\nclass = Duelists", fillcolor="#cee6f8"] ;
71 -> 75 ;
76 [label="ally4_pre_spike_avg_health <= 57.812\ngini = 0.498\nsamples = 15\nvalue = [2, 0, 10, 3]\nclass = Duelists", fillcolor="#8cc6f0"] ;
75 -> 76 ;
77 [label="ally3_pre_spike_avg_health <= 51.5\ngini = 0.278\nsamples = 12\nvalue = [0, 0, 10, 2]\nclass = Duelists", fillcolor="#61b1ea"] ;
76 -> 77 ;
78 [label="gini = 0.0\nsamples = 10\nvalue = [0, 0, 10, 0]\nclass = Duelists", fillcolor="#399de5"] ;
77 -> 78 ;
79 [label="gini = 0.0\nsamples = 2\nvalue = [0, 0, 0, 2]\nclass = Initiators", fillcolor="#d739e5"] ;
77 -> 79 ;
80 [label="gini = 0.444\nsamples = 3\nvalue = [2, 0, 0, 1]\nclass = Sentinels", fillcolor="#f2c09c"] ;
76 -> 80 ;
81 [label="gini = 0.0\nsamples = 4\nvalue = [0, 0, 0, 4]\nclass = Initiators", fillcolor="#d739e5"] ;
75 -> 81 ;
82 [label="ally2_pre_spike_headshots <= 3.0\ngini = 0.171\nsamples = 503\nvalue = [12, 457, 10, 24]\nclass =  Controllers", fillcolor="#59e74c"] ;
70 -> 82 ;
83 [label="self_pre_spike_total_ability_usage_2 <= 0.5\ngini = 0.152\nsamples = 497\nvalue = [12, 457, 10, 18]\nclass =  Controllers", fillcolor="#56e74a"] ;
82 -> 83 ;
84 [label="self_pre_spike_map_covered <= 0.08\ngini = 0.129\nsamples = 489\nvalue = [6, 456, 10, 17]\nclass =  Controllers", fillcolor="#54e747"] ;
83 -> 84 ;
85 [label="self_pre_spike_total_ammo_mag_loss <= 43.5\ngini = 0.32\nsamples = 5\nvalue = [1, 0, 0, 4]\nclass = Initiators", fillcolor="#e16aec"] ;
84 -> 85 ;
86 [label="gini = 0.0\nsamples = 4\nvalue = [0, 0, 0, 4]\nclass = Initiators", fillcolor="#d739e5"] ;
85 -> 86 ;
87 [label="gini = 0.0\nsamples = 1\nvalue = [1, 0, 0, 0]\nclass = Sentinels", fillcolor="#e58139"] ;
85 -> 87 ;
88 [label="opponent0_pre_spike_ultimate_usage <= 0.5\ngini = 0.111\nsamples = 484\nvalue = [5, 456, 10, 13]\nclass =  Controllers", fillcolor="#52e745"] ;
84 -> 88 ;
89 [label="gini = 0.089\nsamples = 478\nvalue = [3, 456, 8, 11]\nclass =  Controllers", fillcolor="#50e642"] ;
88 -> 89 ;
90 [label="gini = 0.667\nsamples = 6\nvalue = [2, 0, 2, 2]\nclass = Sentinels", fillcolor="#ffffff"] ;
88 -> 90 ;
91 [label="opponent1_pre_spike_headshots <= 0.5\ngini = 0.406\nsamples = 8\nvalue = [6, 1, 0, 1]\nclass = Sentinels", fillcolor="#eca572"] ;
83 -> 91 ;
92 [label="gini = 0.0\nsamples = 6\nvalue = [6, 0, 0, 0]\nclass = Sentinels", fillcolor="#e58139"] ;
91 -> 92 ;
93 [label="gini = 0.5\nsamples = 2\nvalue = [0, 1, 0, 1]\nclass =  Controllers", fillcolor="#ffffff"] ;
91 -> 93 ;
94 [label="gini = 0.0\nsamples = 6\nvalue = [0, 0, 0, 6]\nclass = Initiators", fillcolor="#d739e5"] ;
82 -> 94 ;
95 [label="pre_spike_crowd_control_mobility_used <= 0.5\ngini = 0.702\nsamples = 7187\nvalue = [3073, 1387, 958, 1769]\nclass = Sentinels", fillcolor="#f9e1cf"] ;
5 -> 95 ;
96 [label="pre_spike_shield_used <= 0.5\ngini = 0.718\nsamples = 6397\nvalue = [2456, 1218, 958, 1765]\nclass = Sentinels", fillcolor="#fbece1"] ;
95 -> 96 ;
97 [label="self_pre_spike_total_ability_usage_1 <= 0.5\ngini = 0.728\nsamples = 6034\nvalue = [2106, 1205, 958, 1765]\nclass = Sentinels", fillcolor="#fdf5ef"] ;
96 -> 97 ;
98 [label="self_pre_spike_longest_inv_state_melee <= 0.5\ngini = 0.721\nsamples = 5781\nvalue = [2106, 1023, 931, 1721]\nclass = Sentinels", fillcolor="#fdf3ec"] ;
97 -> 98 ;
99 [label="self_pre_spike_avg_ammo_reserve <= 25.167\ngini = 0.673\nsamples = 2059\nvalue = [1003, 278, 380, 398]\nclass = Sentinels", fillcolor="#f6d1b7"] ;
98 -> 99 ;
100 [label="self_pre_spike_total_loadout_value_loss <= 911.0\ngini = 0.671\nsamples = 252\nvalue = [64, 18, 117, 53]\nclass = Duelists", fillcolor="#c7e3f8"] ;
99 -> 100 ;
101 [label="ally2_pre_spike_elims <= 1.5\ngini = 0.52\nsamples = 120\nvalue = [12, 7, 79, 22]\nclass = Duelists", fillcolor="#8cc6f0"] ;
100 -> 101 ;
102 [label="gini = 0.451\nsamples = 108\nvalue = [10, 7, 78, 13]\nclass = Duelists", fillcolor="#78bced"] ;
101 -> 102 ;
103 [label="gini = 0.403\nsamples = 12\nvalue = [2, 0, 1, 9]\nclass = Initiators", fillcolor="#e374ed"] ;
101 -> 103 ;
104 [label="ally3_pre_spike_total_health_loss <= 137.5\ngini = 0.7\nsamples = 132\nvalue = [52, 11, 38, 31]\nclass = Sentinels", fillcolor="#fbece2"] ;
100 -> 104 ;
105 [label="gini = 0.644\nsamples = 50\nvalue = [3, 6, 22, 19]\nclass = Duelists", fillcolor="#ecf6fc"] ;
104 -> 105 ;
106 [label="gini = 0.58\nsamples = 82\nvalue = [49, 5, 16, 12]\nclass = Sentinels", fillcolor="#f2c09c"] ;
104 -> 106 ;
107 [label="self_post_spike_avg_credits <= 343.5\ngini = 0.652\nsamples = 1807\nvalue = [939, 260, 263, 345]\nclass = Sentinels", fillcolor="#f4ccaf"] ;
99 -> 107 ;
108 [label="self_pre_spike_total_ammo_mag_loss <= 2.5\ngini = 0.616\nsamples = 1522\nvalue = [860, 176, 218, 268]\nclass = Sentinels", fillcolor="#f3c4a2"] ;
107 -> 108 ;
109 [label="gini = 0.739\nsamples = 264\nvalue = [87, 57, 50, 70]\nclass = Sentinels", fillcolor="#fdf4ee"] ;
108 -> 109 ;
110 [label="gini = 0.571\nsamples = 1258\nvalue = [773, 119, 168, 198]\nclass = Sentinels", fillcolor="#f1bb94"] ;
108 -> 110 ;
111 [label="ally3_post_spike_total_health_loss <= 128.5\ngini = 0.738\nsamples = 285\nvalue = [79, 84, 45, 77]\nclass =  Controllers", fillcolor="#fbfefa"] ;
107 -> 111 ;
112 [label="gini = 0.736\nsamples = 247\nvalue = [79, 52, 43, 73]\nclass = Sentinels", fillcolor="#fefbf8"] ;
111 -> 112 ;
113 [label="gini = 0.277\nsamples = 38\nvalue = [0, 32, 2, 4]\nclass =  Controllers", fillcolor="#67ea5c"] ;
111 -> 113 ;
114 [label="self_pre_spike_map_covered <= 0.051\ngini = 0.724\nsamples = 3722\nvalue = [1103, 745, 551, 1323]\nclass = Initiators", fillcolor="#fceefd"] ;
98 -> 114 ;
115 [label="round_info_ally_side_unknown <= 0.5\ngini = 0.522\nsamples = 269\nvalue = [178, 23, 27, 41]\nclass = Sentinels", fillcolor="#efb388"] ;
114 -> 115 ;
116 [label="all_ally_dead <= 0.5\ngini = 0.715\nsamples = 119\nvalue = [45, 16, 23, 35]\nclass = Sentinels", fillcolor="#fcf0e7"] ;
115 -> 116 ;
117 [label="gini = 0.688\nsamples = 74\nvalue = [11, 12, 17, 34]\nclass = Initiators", fillcolor="#f3c4f7"] ;
116 -> 117 ;
118 [label="gini = 0.403\nsamples = 45\nvalue = [34, 4, 6, 1]\nclass = Sentinels", fillcolor="#eca571"] ;
116 -> 118 ;
119 [label="self_pre_spike_total_ability_usage_3 <= 0.5\ngini = 0.209\nsamples = 150\nvalue = [133, 7, 4, 6]\nclass = Sentinels", fillcolor="#e89051"] ;
115 -> 119 ;
120 [label="gini = 0.156\nsamples = 145\nvalue = [133, 7, 4, 1]\nclass = Sentinels", fillcolor="#e78c4a"] ;
119 -> 120 ;
121 [label="gini = 0.0\nsamples = 5\nvalue = [0, 0, 0, 5]\nclass = Initiators", fillcolor="#d739e5"] ;
119 -> 121 ;
122 [label="post_spike_crowd_control_vision_used <= 0.5\ngini = 0.724\nsamples = 3453\nvalue = [925, 722, 524, 1282]\nclass = Initiators", fillcolor="#f9e3fb"] ;
114 -> 122 ;
123 [label="self_pre_spike_map_covered <= 0.296\ngini = 0.728\nsamples = 3303\nvalue = [923, 712, 501, 1167]\nclass = Initiators", fillcolor="#fbebfc"] ;
122 -> 123 ;
124 [label="gini = 0.717\nsamples = 2360\nvalue = [571, 485, 366, 938]\nclass = Initiators", fillcolor="#f7d6fa"] ;
123 -> 124 ;
125 [label="gini = 0.723\nsamples = 943\nvalue = [352, 227, 135, 229]\nclass = Sentinels", fillcolor="#fbe9dd"] ;
123 -> 125 ;
126 [label="self_post_spike_total_ability_usage_1 <= 0.5\ngini = 0.384\nsamples = 150\nvalue = [2, 10, 23, 115]\nclass = Initiators", fillcolor="#e270ec"] ;
122 -> 126 ;
127 [label="gini = 0.207\nsamples = 115\nvalue = [2, 9, 2, 102]\nclass = Initiators", fillcolor="#dc51e8"] ;
126 -> 127 ;
128 [label="gini = 0.501\nsamples = 35\nvalue = [0, 1, 21, 13]\nclass = Duelists", fillcolor="#b7dbf6"] ;
126 -> 128 ;
129 [label="pre_spike_healing_used <= 0.5\ngini = 0.441\nsamples = 253\nvalue = [0, 182, 27, 44]\nclass =  Controllers", fillcolor="#86ee7c"] ;
97 -> 129 ;
130 [label="ally2_pre_spike_avg_health <= 64.833\ngini = 0.337\nsamples = 227\nvalue = [0, 182, 27, 18]\nclass =  Controllers", fillcolor="#70eb66"] ;
129 -> 130 ;
131 [label="ally4_pre_spike_total_health_loss <= 48.5\ngini = 0.655\nsamples = 52\nvalue = [0, 18, 21, 13]\nclass = Duelists", fillcolor="#eef6fd"] ;
130 -> 131 ;
132 [label="self_longest_gun_secondary_none <= 0.5\ngini = 0.087\nsamples = 22\nvalue = [0, 1, 21, 0]\nclass = Duelists", fillcolor="#42a2e6"] ;
131 -> 132 ;
133 [label="gini = 0.0\nsamples = 1\nvalue = [0, 1, 0, 0]\nclass =  Controllers", fillcolor="#47e539"] ;
132 -> 133 ;
134 [label="gini = 0.0\nsamples = 21\nvalue = [0, 0, 21, 0]\nclass = Duelists", fillcolor="#399de5"] ;
132 -> 134 ;
135 [label="opponent2_pre_spike_assists <= 0.5\ngini = 0.491\nsamples = 30\nvalue = [0, 17, 0, 13]\nclass =  Controllers", fillcolor="#d4f9d0"] ;
131 -> 135 ;
136 [label="gini = 0.188\nsamples = 19\nvalue = [0, 17, 0, 2]\nclass =  Controllers", fillcolor="#5de850"] ;
135 -> 136 ;
137 [label="gini = 0.0\nsamples = 11\nvalue = [0, 0, 0, 11]\nclass = Initiators", fillcolor="#d739e5"] ;
135 -> 137 ;
138 [label="self_post_spike_total_ability_usage_2 <= 1.5\ngini = 0.12\nsamples = 175\nvalue = [0, 164, 6, 5]\nclass =  Controllers", fillcolor="#53e746"] ;
130 -> 138 ;
139 [label="ally4_post_spike_elims <= 1.5\ngini = 0.1\nsamples = 173\nvalue = [0, 164, 6, 3]\nclass =  Controllers", fillcolor="#51e644"] ;
138 -> 139 ;
140 [label="gini = 0.079\nsamples = 170\nvalue = [0, 163, 6, 1]\nclass =  Controllers", fillcolor="#4fe641"] ;
139 -> 140 ;
141 [label="gini = 0.444\nsamples = 3\nvalue = [0, 1, 0, 2]\nclass = Initiators", fillcolor="#eb9cf2"] ;
139 -> 141 ;
142 [label="gini = 0.0\nsamples = 2\nvalue = [0, 0, 0, 2]\nclass = Initiators", fillcolor="#d739e5"] ;
138 -> 142 ;
143 [label="gini = 0.0\nsamples = 26\nvalue = [0, 0, 0, 26]\nclass = Initiators", fillcolor="#d739e5"] ;
129 -> 143 ;
144 [label="self_pre_spike_total_ability_usage_3 <= 0.5\ngini = 0.069\nsamples = 363\nvalue = [350, 13, 0, 0]\nclass = Sentinels", fillcolor="#e68640"] ;
96 -> 144 ;
145 [label="gini = 0.0\nsamples = 13\nvalue = [0, 13, 0, 0]\nclass =  Controllers", fillcolor="#47e539"] ;
144 -> 145 ;
146 [label="gini = 0.0\nsamples = 350\nvalue = [350, 0, 0, 0]\nclass = Sentinels", fillcolor="#e58139"] ;
144 -> 146 ;
147 [label="self_pre_spike_total_ability_usage_3 <= 0.5\ngini = 0.344\nsamples = 790\nvalue = [617, 169, 0, 4]\nclass = Sentinels", fillcolor="#eca470"] ;
95 -> 147 ;
148 [label="post_spike_shield_used <= 0.5\ngini = 0.167\nsamples = 494\nvalue = [449, 41, 0, 4]\nclass = Sentinels", fillcolor="#e88e4d"] ;
147 -> 148 ;
149 [label="opponent2_pre_spike_elims <= 2.5\ngini = 0.129\nsamples = 482\nvalue = [449, 29, 0, 4]\nclass = Sentinels", fillcolor="#e78a47"] ;
148 -> 149 ;
150 [label="pre_spike_shield_used <= 0.5\ngini = 0.07\nsamples = 441\nvalue = [425, 12, 0, 4]\nclass = Sentinels", fillcolor="#e68640"] ;
149 -> 150 ;
151 [label="ally2_pre_spike_avg_health <= 98.254\ngini = 0.062\nsamples = 439\nvalue = [425, 10, 0, 4]\nclass = Sentinels", fillcolor="#e6853f"] ;
150 -> 151 ;
152 [label="post_spike_crowd_control_vision_used <= 0.5\ngini = 0.038\nsamples = 418\nvalue = [410, 4, 0, 4]\nclass = Sentinels", fillcolor="#e6833d"] ;
151 -> 152 ;
153 [label="gini = 0.033\nsamples = 417\nvalue = [410, 4, 0, 3]\nclass = Sentinels", fillcolor="#e5833c"] ;
152 -> 153 ;
154 [label="gini = 0.0\nsamples = 1\nvalue = [0, 0, 0, 1]\nclass = Initiators", fillcolor="#d739e5"] ;
152 -> 154 ;
155 [label="opponent2_pre_spike_first_bloods <= 0.5\ngini = 0.408\nsamples = 21\nvalue = [15, 6, 0, 0]\nclass = Sentinels", fillcolor="#efb388"] ;
151 -> 155 ;
156 [label="gini = 0.0\nsamples = 15\nvalue = [15, 0, 0, 0]\nclass = Sentinels", fillcolor="#e58139"] ;
155 -> 156 ;
157 [label="gini = 0.0\nsamples = 6\nvalue = [0, 6, 0, 0]\nclass =  Controllers", fillcolor="#47e539"] ;
155 -> 157 ;
158 [label="gini = 0.0\nsamples = 2\nvalue = [0, 2, 0, 0]\nclass =  Controllers", fillcolor="#47e539"] ;
150 -> 158 ;
159 [label="ally3_pre_spike_avg_health <= 85.509\ngini = 0.485\nsamples = 41\nvalue = [24, 17, 0, 0]\nclass = Sentinels", fillcolor="#f7dac5"] ;
149 -> 159 ;
160 [label="gini = 0.0\nsamples = 24\nvalue = [24, 0, 0, 0]\nclass = Sentinels", fillcolor="#e58139"] ;
159 -> 160 ;
161 [label="gini = 0.0\nsamples = 17\nvalue = [0, 17, 0, 0]\nclass =  Controllers", fillcolor="#47e539"] ;
159 -> 161 ;
162 [label="gini = 0.0\nsamples = 12\nvalue = [0, 12, 0, 0]\nclass =  Controllers", fillcolor="#47e539"] ;
148 -> 162 ;
163 [label="pre_spike_healing_used <= 0.5\ngini = 0.491\nsamples = 296\nvalue = [168, 128, 0, 0]\nclass = Sentinels", fillcolor="#f9e1d0"] ;
147 -> 163 ;
164 [label="self_pre_spike_total_ability_usage_4 <= 0.5\ngini = 0.343\nsamples = 164\nvalue = [36, 128, 0, 0]\nclass =  Controllers", fillcolor="#7bec71"] ;
163 -> 164 ;
165 [label="gini = 0.0\nsamples = 128\nvalue = [0, 128, 0, 0]\nclass =  Controllers", fillcolor="#47e539"] ;
164 -> 165 ;
166 [label="gini = 0.0\nsamples = 36\nvalue = [36, 0, 0, 0]\nclass = Sentinels", fillcolor="#e58139"] ;
164 -> 166 ;
167 [label="gini = 0.0\nsamples = 132\nvalue = [132, 0, 0, 0]\nclass = Sentinels", fillcolor="#e58139"] ;
163 -> 167 ;
168 [label="self_pre_spike_total_ability_usage_1 <= 0.5\ngini = 0.513\nsamples = 1371\nvalue = [379, 72, 46, 874]\nclass = Initiators", fillcolor="#eb9cf2"] ;
4 -> 168 ;
169 [label="self_longest_inv_state_melee <= 0.5\ngini = 0.565\nsamples = 787\nvalue = [350, 11, 46, 380]\nclass = Initiators", fillcolor="#fcf1fd"] ;
168 -> 169 ;
170 [label="ally2_pre_spike_total_health_loss <= 233.5\ngini = 0.473\nsamples = 304\nvalue = [211, 4, 34, 55]\nclass = Sentinels", fillcolor="#efb083"] ;
169 -> 170 ;
171 [label="ally3_pre_spike_avg_health <= 55.0\ngini = 0.359\nsamples = 250\nvalue = [195, 2, 9, 44]\nclass = Sentinels", fillcolor="#eca36e"] ;
170 -> 171 ;
172 [label="ally3_pre_spike_max_health_loss <= 96.5\ngini = 0.545\nsamples = 33\nvalue = [13, 1, 1, 18]\nclass = Initiators", fillcolor="#f5cef8"] ;
171 -> 172 ;
173 [label="gini = 0.0\nsamples = 12\nvalue = [12, 0, 0, 0]\nclass = Sentinels", fillcolor="#e58139"] ;
172 -> 173 ;
174 [label="self_pre_spike_total_ammo_mag_loss <= 62.0\ngini = 0.259\nsamples = 21\nvalue = [1, 1, 1, 18]\nclass = Initiators", fillcolor="#dd57e9"] ;
172 -> 174 ;
175 [label="gini = 0.0\nsamples = 18\nvalue = [0, 0, 0, 18]\nclass = Initiators", fillcolor="#d739e5"] ;
174 -> 175 ;
176 [label="gini = 0.667\nsamples = 3\nvalue = [1, 1, 1, 0]\nclass = Sentinels", fillcolor="#ffffff"] ;
174 -> 176 ;
177 [label="ally3_post_spike_headshots <= 2.5\ngini = 0.281\nsamples = 217\nvalue = [182, 1, 8, 26]\nclass = Sentinels", fillcolor="#ea985d"] ;
171 -> 177 ;
178 [label="self_post_spike_total_ability_usage_1 <= 0.5\ngini = 0.246\nsamples = 211\nvalue = [182, 1, 8, 20]\nclass = Sentinels", fillcolor="#e99457"] ;
177 -> 178 ;
179 [label="self_pre_spike_map_covered <= 0.378\ngini = 0.212\nsamples = 206\nvalue = [182, 1, 6, 17]\nclass = Sentinels", fillcolor="#e89152"] ;
178 -> 179 ;
180 [label="self_post_spike_max_ammo_reserve_loss <= 45.5\ngini = 0.159\nsamples = 188\nvalue = [172, 0, 6, 10]\nclass = Sentinels", fillcolor="#e78c4b"] ;
179 -> 180 ;
181 [label="gini = 0.142\nsamples = 186\nvalue = [172, 0, 6, 8]\nclass = Sentinels", fillcolor="#e78b49"] ;
180 -> 181 ;
182 [label="gini = 0.0\nsamples = 2\nvalue = [0, 0, 0, 2]\nclass = Initiators", fillcolor="#d739e5"] ;
180 -> 182 ;
183 [label="opponent2_pre_spike_deaths <= 0.5\ngini = 0.537\nsamples = 18\nvalue = [10, 1, 0, 7]\nclass = Sentinels", fillcolor="#f8ddc9"] ;
179 -> 183 ;
184 [label="gini = 0.379\nsamples = 13\nvalue = [10, 1, 0, 2]\nclass = Sentinels", fillcolor="#eca36f"] ;
183 -> 184 ;
185 [label="gini = 0.0\nsamples = 5\nvalue = [0, 0, 0, 5]\nclass = Initiators", fillcolor="#d739e5"] ;
183 -> 185 ;
186 [label="self_post_spike_max_ammo_mag_loss <= 9.5\ngini = 0.48\nsamples = 5\nvalue = [0, 0, 2, 3]\nclass = Initiators", fillcolor="#f2bdf6"] ;
178 -> 186 ;
187 [label="gini = 0.0\nsamples = 2\nvalue = [0, 0, 2, 0]\nclass = Duelists", fillcolor="#399de5"] ;
186 -> 187 ;
188 [label="gini = 0.0\nsamples = 3\nvalue = [0, 0, 0, 3]\nclass = Initiators", fillcolor="#d739e5"] ;
186 -> 188 ;
189 [label="gini = 0.0\nsamples = 6\nvalue = [0, 0, 0, 6]\nclass = Initiators", fillcolor="#d739e5"] ;
177 -> 189 ;
190 [label="ally3_pre_spike_avg_health <= 94.186\ngini = 0.655\nsamples = 54\nvalue = [16, 2, 25, 11]\nclass = Duelists", fillcolor="#d0e8f9"] ;
170 -> 190 ;
191 [label="ally4_pre_spike_total_health_loss <= 170.0\ngini = 0.557\nsamples = 44\nvalue = [15, 2, 25, 2]\nclass = Duelists", fillcolor="#bbddf6"] ;
190 -> 191 ;
192 [label="self_pre_spike_total_ability_usage_4 <= 0.5\ngini = 0.473\nsamples = 13\nvalue = [9, 2, 0, 2]\nclass = Sentinels", fillcolor="#eeaf81"] ;
191 -> 192 ;
193 [label="self_pre_spike_total_credits_loss <= 5275.0\ngini = 0.298\nsamples = 11\nvalue = [9, 0, 0, 2]\nclass = Sentinels", fillcolor="#eb9d65"] ;
192 -> 193 ;
194 [label="gini = 0.0\nsamples = 9\nvalue = [9, 0, 0, 0]\nclass = Sentinels", fillcolor="#e58139"] ;
193 -> 194 ;
195 [label="gini = 0.0\nsamples = 2\nvalue = [0, 0, 0, 2]\nclass = Initiators", fillcolor="#d739e5"] ;
193 -> 195 ;
196 [label="gini = 0.0\nsamples = 2\nvalue = [0, 2, 0, 0]\nclass =  Controllers", fillcolor="#47e539"] ;
192 -> 196 ;
197 [label="ally1_pre_spike_avg_health <= 79.513\ngini = 0.312\nsamples = 31\nvalue = [6, 0, 25, 0]\nclass = Duelists", fillcolor="#69b5eb"] ;
191 -> 197 ;
198 [label="ally3_post_spike_elims <= 0.5\ngini = 0.278\nsamples = 6\nvalue = [5, 0, 1, 0]\nclass = Sentinels", fillcolor="#ea9a61"] ;
197 -> 198 ;
199 [label="gini = 0.0\nsamples = 5\nvalue = [5, 0, 0, 0]\nclass = Sentinels", fillcolor="#e58139"] ;
198 -> 199 ;
200 [label="gini = 0.0\nsamples = 1\nvalue = [0, 0, 1, 0]\nclass = Duelists", fillcolor="#399de5"] ;
198 -> 200 ;
201 [label="ally1_post_spike_avg_health <= 94.942\ngini = 0.077\nsamples = 25\nvalue = [1, 0, 24, 0]\nclass = Duelists", fillcolor="#41a1e6"] ;
197 -> 201 ;
202 [label="gini = 0.0\nsamples = 24\nvalue = [0, 0, 24, 0]\nclass = Duelists", fillcolor="#399de5"] ;
201 -> 202 ;
203 [label="gini = 0.0\nsamples = 1\nvalue = [1, 0, 0, 0]\nclass = Sentinels", fillcolor="#e58139"] ;
201 -> 203 ;
204 [label="self_pre_spike_total_ammo_reserve_loss <= 21.5\ngini = 0.18\nsamples = 10\nvalue = [1, 0, 0, 9]\nclass = Initiators", fillcolor="#db4fe8"] ;
190 -> 204 ;
205 [label="gini = 0.0\nsamples = 9\nvalue = [0, 0, 0, 9]\nclass = Initiators", fillcolor="#d739e5"] ;
204 -> 205 ;
206 [label="gini = 0.0\nsamples = 1\nvalue = [1, 0, 0, 0]\nclass = Sentinels", fillcolor="#e58139"] ;
204 -> 206 ;
207 [label="self_pre_spike_avg_ammo_reserve <= 17.667\ngini = 0.464\nsamples = 483\nvalue = [139, 7, 12, 325]\nclass = Initiators", fillcolor="#e994f1"] ;
169 -> 207 ;
208 [label="self_pre_spike_max_loadout_value_loss <= 1950.0\ngini = 0.138\nsamples = 41\nvalue = [38, 0, 1, 2]\nclass = Sentinels", fillcolor="#e78b48"] ;
207 -> 208 ;
209 [label="gini = 0.0\nsamples = 36\nvalue = [36, 0, 0, 0]\nclass = Sentinels", fillcolor="#e58139"] ;
208 -> 209 ;
210 [label="self_pre_spike_deaths <= 0.5\ngini = 0.64\nsamples = 5\nvalue = [2, 0, 1, 2]\nclass = Sentinels", fillcolor="#ffffff"] ;
208 -> 210 ;
211 [label="gini = 0.0\nsamples = 2\nvalue = [2, 0, 0, 0]\nclass = Sentinels", fillcolor="#e58139"] ;
210 -> 211 ;
212 [label="gini = 0.444\nsamples = 3\nvalue = [0, 0, 1, 2]\nclass = Initiators", fillcolor="#eb9cf2"] ;
210 -> 212 ;
213 [label="self_pre_spike_map_covered <= 0.067\ngini = 0.413\nsamples = 442\nvalue = [101, 7, 11, 323]\nclass = Initiators", fillcolor="#e57eee"] ;
207 -> 213 ;
214 [label="round_info_ally_side_defender <= 0.5\ngini = 0.172\nsamples = 21\nvalue = [19, 0, 2, 0]\nclass = Sentinels", fillcolor="#e88e4e"] ;
213 -> 214 ;
215 [label="gini = 0.0\nsamples = 19\nvalue = [19, 0, 0, 0]\nclass = Sentinels", fillcolor="#e58139"] ;
214 -> 215 ;
216 [label="gini = 0.0\nsamples = 2\nvalue = [0, 0, 2, 0]\nclass = Duelists", fillcolor="#399de5"] ;
214 -> 216 ;
217 [label="ally3_pre_spike_max_health_loss <= 7.5\ngini = 0.373\nsamples = 421\nvalue = [82, 7, 9, 323]\nclass = Initiators", fillcolor="#e372ed"] ;
213 -> 217 ;
218 [label="ally1_pre_spike_avg_health <= 90.701\ngini = 0.468\nsamples = 46\nvalue = [30, 1, 0, 15]\nclass = Sentinels", fillcolor="#f2c29f"] ;
217 -> 218 ;
219 [label="self_pre_spike_avg_ammo_reserve <= 82.5\ngini = 0.133\nsamples = 14\nvalue = [0, 1, 0, 13]\nclass = Initiators", fillcolor="#da48e7"] ;
218 -> 219 ;
220 [label="gini = 0.0\nsamples = 13\nvalue = [0, 0, 0, 13]\nclass = Initiators", fillcolor="#d739e5"] ;
219 -> 220 ;
221 [label="gini = 0.0\nsamples = 1\nvalue = [0, 1, 0, 0]\nclass =  Controllers", fillcolor="#47e539"] ;
219 -> 221 ;
222 [label="opponent4_pre_spike_elims <= 0.5\ngini = 0.117\nsamples = 32\nvalue = [30, 0, 0, 2]\nclass = Sentinels", fillcolor="#e78946"] ;
218 -> 222 ;
223 [label="gini = 0.0\nsamples = 30\nvalue = [30, 0, 0, 0]\nclass = Sentinels", fillcolor="#e58139"] ;
222 -> 223 ;
224 [label="gini = 0.0\nsamples = 2\nvalue = [0, 0, 0, 2]\nclass = Initiators", fillcolor="#d739e5"] ;
222 -> 224 ;
225 [label="self_pre_spike_total_health_loss <= 157.0\ngini = 0.305\nsamples = 375\nvalue = [52, 6, 9, 308]\nclass = Initiators", fillcolor="#df62ea"] ;
217 -> 225 ;
226 [label="ally4_post_spike_avg_health <= 96.222\ngini = 0.28\nsamples = 367\nvalue = [44, 6, 9, 308]\nclass = Initiators", fillcolor="#de5dea"] ;
225 -> 226 ;
227 [label="self_pre_spike_avg_ammo_mag <= 5.029\ngini = 0.249\nsamples = 358\nvalue = [36, 5, 9, 308]\nclass = Initiators", fillcolor="#dd58e9"] ;
226 -> 227 ;
228 [label="gini = 0.0\nsamples = 7\nvalue = [7, 0, 0, 0]\nclass = Sentinels", fillcolor="#e58139"] ;
227 -> 228 ;
229 [label="gini = 0.222\nsamples = 351\nvalue = [29, 5, 9, 308]\nclass = Initiators", fillcolor="#dc53e8"] ;
227 -> 229 ;
230 [label="self_pre_spike_total_ammo_mag_loss <= 208.0\ngini = 0.198\nsamples = 9\nvalue = [8, 1, 0, 0]\nclass = Sentinels", fillcolor="#e89152"] ;
226 -> 230 ;
231 [label="gini = 0.0\nsamples = 8\nvalue = [8, 0, 0, 0]\nclass = Sentinels", fillcolor="#e58139"] ;
230 -> 231 ;
232 [label="gini = 0.0\nsamples = 1\nvalue = [0, 1, 0, 0]\nclass =  Controllers", fillcolor="#47e539"] ;
230 -> 232 ;
233 [label="gini = 0.0\nsamples = 8\nvalue = [8, 0, 0, 0]\nclass = Sentinels", fillcolor="#e58139"] ;
225 -> 233 ;
234 [label="pre_spike_crowd_control_mobility_used <= 0.5\ngini = 0.271\nsamples = 584\nvalue = [29, 61, 0, 494]\nclass = Initiators", fillcolor="#de5be9"] ;
168 -> 234 ;
235 [label="opponent0_pre_spike_first_bloods <= 0.5\ngini = 0.196\nsamples = 555\nvalue = [0, 61, 0, 494]\nclass = Initiators", fillcolor="#dc51e8"] ;
234 -> 235 ;
236 [label="ally3_pre_spike_avg_health <= 35.632\ngini = 0.16\nsamples = 537\nvalue = [0, 47, 0, 490]\nclass = Initiators", fillcolor="#db4ce7"] ;
235 -> 236 ;
237 [label="ally2_pre_spike_elims <= 0.5\ngini = 0.153\nsamples = 12\nvalue = [0, 11, 0, 1]\nclass =  Controllers", fillcolor="#58e74b"] ;
236 -> 237 ;
238 [label="gini = 0.0\nsamples = 1\nvalue = [0, 0, 0, 1]\nclass = Initiators", fillcolor="#d739e5"] ;
237 -> 238 ;
239 [label="gini = 0.0\nsamples = 11\nvalue = [0, 11, 0, 0]\nclass =  Controllers", fillcolor="#47e539"] ;
237 -> 239 ;
240 [label="ally1_pre_spike_avg_health <= 39.792\ngini = 0.128\nsamples = 525\nvalue = [0, 36, 0, 489]\nclass = Initiators", fillcolor="#da48e7"] ;
236 -> 240 ;
241 [label="self_pre_spike_longest_gun_secondary_ghost <= 0.5\ngini = 0.43\nsamples = 16\nvalue = [0, 11, 0, 5]\nclass =  Controllers", fillcolor="#9bf193"] ;
240 -> 241 ;
242 [label="gini = 0.0\nsamples = 5\nvalue = [0, 0, 0, 5]\nclass = Initiators", fillcolor="#d739e5"] ;
241 -> 242 ;
243 [label="gini = 0.0\nsamples = 11\nvalue = [0, 11, 0, 0]\nclass =  Controllers", fillcolor="#47e539"] ;
241 -> 243 ;
244 [label="post_spike_damage_for_team_used <= 0.5\ngini = 0.093\nsamples = 509\nvalue = [0, 25, 0, 484]\nclass = Initiators", fillcolor="#d943e6"] ;
240 -> 244 ;
245 [label="self_longest_gun_primary_operator <= 0.5\ngini = 0.08\nsamples = 505\nvalue = [0, 21, 0, 484]\nclass = Initiators", fillcolor="#d942e6"] ;
244 -> 245 ;
246 [label="self_pre_spike_total_health_loss <= 109.5\ngini = 0.062\nsamples = 498\nvalue = [0, 16, 0, 482]\nclass = Initiators", fillcolor="#d840e6"] ;
245 -> 246 ;
247 [label="gini = 0.055\nsamples = 496\nvalue = [0, 14, 0, 482]\nclass = Initiators", fillcolor="#d83fe6"] ;
246 -> 247 ;
248 [label="gini = 0.0\nsamples = 2\nvalue = [0, 2, 0, 0]\nclass =  Controllers", fillcolor="#47e539"] ;
246 -> 248 ;
249 [label="self_pre_spike_max_loadout_value_loss <= 3800.0\ngini = 0.408\nsamples = 7\nvalue = [0, 5, 0, 2]\nclass =  Controllers", fillcolor="#91ef88"] ;
245 -> 249 ;
250 [label="gini = 0.0\nsamples = 2\nvalue = [0, 0, 0, 2]\nclass = Initiators", fillcolor="#d739e5"] ;
249 -> 250 ;
251 [label="gini = 0.0\nsamples = 5\nvalue = [0, 5, 0, 0]\nclass =  Controllers", fillcolor="#47e539"] ;
249 -> 251 ;
252 [label="gini = 0.0\nsamples = 4\nvalue = [0, 4, 0, 0]\nclass =  Controllers", fillcolor="#47e539"] ;
244 -> 252 ;
253 [label="self_pre_spike_avg_ammo_mag <= 18.096\ngini = 0.346\nsamples = 18\nvalue = [0, 14, 0, 4]\nclass =  Controllers", fillcolor="#7cec72"] ;
235 -> 253 ;
254 [label="gini = 0.0\nsamples = 4\nvalue = [0, 0, 0, 4]\nclass = Initiators", fillcolor="#d739e5"] ;
253 -> 254 ;
255 [label="gini = 0.0\nsamples = 14\nvalue = [0, 14, 0, 0]\nclass =  Controllers", fillcolor="#47e539"] ;
253 -> 255 ;
256 [label="gini = 0.0\nsamples = 29\nvalue = [29, 0, 0, 0]\nclass = Sentinels", fillcolor="#e58139"] ;
234 -> 256 ;
257 [label="pre_spike_healing_used <= 0.5\ngini = 0.07\nsamples = 438\nvalue = [16, 422, 0, 0]\nclass =  Controllers", fillcolor="#4ee641"] ;
3 -> 257 ;
258 [label="pre_spike_crowd_control_mobility_used <= 1.5\ngini = 0.032\nsamples = 429\nvalue = [7, 422, 0, 0]\nclass =  Controllers", fillcolor="#4ae53c"] ;
257 -> 258 ;
259 [label="gini = 0.0\nsamples = 404\nvalue = [0, 404, 0, 0]\nclass =  Controllers", fillcolor="#47e539"] ;
258 -> 259 ;
260 [label="ally2_pre_spike_avg_health <= 90.401\ngini = 0.403\nsamples = 25\nvalue = [7, 18, 0, 0]\nclass =  Controllers", fillcolor="#8fef86"] ;
258 -> 260 ;
261 [label="gini = 0.0\nsamples = 17\nvalue = [0, 17, 0, 0]\nclass =  Controllers", fillcolor="#47e539"] ;
260 -> 261 ;
262 [label="self_pre_spike_longest_gun_secondary_classic <= 0.5\ngini = 0.219\nsamples = 8\nvalue = [7, 1, 0, 0]\nclass = Sentinels", fillcolor="#e99355"] ;
260 -> 262 ;
263 [label="gini = 0.0\nsamples = 7\nvalue = [7, 0, 0, 0]\nclass = Sentinels", fillcolor="#e58139"] ;
262 -> 263 ;
264 [label="gini = 0.0\nsamples = 1\nvalue = [0, 1, 0, 0]\nclass =  Controllers", fillcolor="#47e539"] ;
262 -> 264 ;
265 [label="gini = 0.0\nsamples = 9\nvalue = [9, 0, 0, 0]\nclass = Sentinels", fillcolor="#e58139"] ;
257 -> 265 ;
266 [label="pre_spike_information_used <= 0.5\ngini = 0.658\nsamples = 5219\nvalue = [664, 1594, 495, 2466]\nclass = Initiators", fillcolor="#f5cff9"] ;
2 -> 266 ;
267 [label="self_pre_spike_map_covered <= 0.419\ngini = 0.535\nsamples = 3872\nvalue = [0, 1153, 373, 2346]\nclass = Initiators", fillcolor="#eda8f4"] ;
266 -> 267 ;
268 [label="self_pre_spike_total_ability_usage_3 <= 0.5\ngini = 0.482\nsamples = 3102\nvalue = [0, 683, 316, 2103]\nclass = Initiators", fillcolor="#e88bf0"] ;
267 -> 268 ;
269 [label="self_pre_spike_total_ability_usage_4 <= 0.5\ngini = 0.599\nsamples = 730\nvalue = [0, 88, 316, 326]\nclass = Initiators", fillcolor="#fefafe"] ;
268 -> 269 ;
270 [label="self_pre_spike_total_ability_usage_2 <= 0.5\ngini = 0.593\nsamples = 548\nvalue = [0, 76, 287, 185]\nclass = Duelists", fillcolor="#c7e3f8"] ;
269 -> 270 ;
271 [label="ally3_pre_spike_avg_health <= 96.963\ngini = 0.202\nsamples = 149\nvalue = [0, 0, 132, 17]\nclass = Duelists", fillcolor="#52aae8"] ;
270 -> 271 ;
272 [label="self_pre_spike_avg_ammo_reserve <= 76.25\ngini = 0.134\nsamples = 138\nvalue = [0, 0, 128, 10]\nclass = Duelists", fillcolor="#48a5e7"] ;
271 -> 272 ;
273 [label="self_pre_spike_map_covered <= 0.348\ngini = 0.088\nsamples = 130\nvalue = [0, 0, 124, 6]\nclass = Duelists", fillcolor="#43a2e6"] ;
272 -> 273 ;
274 [label="ally3_pre_spike_total_health_loss <= 571.0\ngini = 0.047\nsamples = 124\nvalue = [0, 0, 121, 3]\nclass = Duelists", fillcolor="#3e9fe6"] ;
273 -> 274 ;
275 [label="ally2_pre_spike_ultimate_usage <= 1.5\ngini = 0.032\nsamples = 123\nvalue = [0, 0, 121, 2]\nclass = Duelists", fillcolor="#3c9fe5"] ;
274 -> 275 ;
276 [label="gini = 0.016\nsamples = 121\nvalue = [0, 0, 120, 1]\nclass = Duelists", fillcolor="#3b9ee5"] ;
275 -> 276 ;
277 [label="gini = 0.5\nsamples = 2\nvalue = [0, 0, 1, 1]\nclass = Duelists", fillcolor="#ffffff"] ;
275 -> 277 ;
278 [label="gini = 0.0\nsamples = 1\nvalue = [0, 0, 0, 1]\nclass = Initiators", fillcolor="#d739e5"] ;
274 -> 278 ;
279 [label="self_pre_spike_map_covered <= 0.369\ngini = 0.5\nsamples = 6\nvalue = [0, 0, 3, 3]\nclass = Duelists", fillcolor="#ffffff"] ;
273 -> 279 ;
280 [label="gini = 0.0\nsamples = 3\nvalue = [0, 0, 0, 3]\nclass = Initiators", fillcolor="#d739e5"] ;
279 -> 280 ;
281 [label="gini = 0.0\nsamples = 3\nvalue = [0, 0, 3, 0]\nclass = Duelists", fillcolor="#399de5"] ;
279 -> 281 ;
282 [label="round_info_round_start <= 1662813.5\ngini = 0.5\nsamples = 8\nvalue = [0, 0, 4, 4]\nclass = Duelists", fillcolor="#ffffff"] ;
272 -> 282 ;
283 [label="gini = 0.0\nsamples = 4\nvalue = [0, 0, 0, 4]\nclass = Initiators", fillcolor="#d739e5"] ;
282 -> 283 ;
284 [label="gini = 0.0\nsamples = 4\nvalue = [0, 0, 4, 0]\nclass = Duelists", fillcolor="#399de5"] ;
282 -> 284 ;
285 [label="ally4_pre_spike_avg_health <= 93.909\ngini = 0.463\nsamples = 11\nvalue = [0, 0, 4, 7]\nclass = Initiators", fillcolor="#eeaaf4"] ;
271 -> 285 ;
286 [label="gini = 0.0\nsamples = 7\nvalue = [0, 0, 0, 7]\nclass = Initiators", fillcolor="#d739e5"] ;
285 -> 286 ;
287 [label="gini = 0.0\nsamples = 4\nvalue = [0, 0, 4, 0]\nclass = Duelists", fillcolor="#399de5"] ;
285 -> 287 ;
288 [label="pre_spike_damage_for_team_used <= 0.5\ngini = 0.636\nsamples = 399\nvalue = [0, 76, 155, 168]\nclass = Initiators", fillcolor="#fdf4fe"] ;
270 -> 288 ;
289 [label="ally3_pre_spike_avg_health <= 78.574\ngini = 0.503\nsamples = 218\nvalue = [0, 1, 115, 102]\nclass = Duelists", fillcolor="#e9f4fc"] ;
288 -> 289 ;
290 [label="self_pre_spike_movement_metric <= 1.5\ngini = 0.358\nsamples = 77\nvalue = [0, 0, 18, 59]\nclass = Initiators", fillcolor="#e375ed"] ;
289 -> 290 ;
291 [label="gini = 0.0\nsamples = 7\nvalue = [0, 0, 7, 0]\nclass = Duelists", fillcolor="#399de5"] ;
290 -> 291 ;
292 [label="self_pre_spike_map_covered <= 0.326\ngini = 0.265\nsamples = 70\nvalue = [0, 0, 11, 59]\nclass = Initiators", fillcolor="#de5eea"] ;
290 -> 292 ;
293 [label="opponent3_ultimate_usage <= 0.5\ngini = 0.148\nsamples = 62\nvalue = [0, 0, 5, 57]\nclass = Initiators", fillcolor="#db4ae7"] ;
292 -> 293 ;
294 [label="gini = 0.095\nsamples = 60\nvalue = [0, 0, 3, 57]\nclass = Initiators", fillcolor="#d943e6"] ;
293 -> 294 ;
295 [label="gini = 0.0\nsamples = 2\nvalue = [0, 0, 2, 0]\nclass = Duelists", fillcolor="#399de5"] ;
293 -> 295 ;
296 [label="self_pre_spike_map_covered <= 0.34\ngini = 0.375\nsamples = 8\nvalue = [0, 0, 6, 2]\nclass = Duelists", fillcolor="#7bbeee"] ;
292 -> 296 ;
297 [label="gini = 0.0\nsamples = 6\nvalue = [0, 0, 6, 0]\nclass = Duelists", fillcolor="#399de5"] ;
296 -> 297 ;
298 [label="gini = 0.0\nsamples = 2\nvalue = [0, 0, 0, 2]\nclass = Initiators", fillcolor="#d739e5"] ;
296 -> 298 ;
299 [label="pre_spike_crowd_control_general_used <= 0.5\ngini = 0.434\nsamples = 141\nvalue = [0, 1, 97, 43]\nclass = Duelists", fillcolor="#92c9f1"] ;
289 -> 299 ;
300 [label="self_pre_spike_total_loadout_value_loss <= 5250.0\ngini = 0.358\nsamples = 126\nvalue = [0, 1, 97, 28]\nclass = Duelists", fillcolor="#74baed"] ;
299 -> 300 ;
301 [label="ally1_pre_spike_avg_health <= 51.973\ngini = 0.245\nsamples = 105\nvalue = [0, 0, 90, 15]\nclass = Duelists", fillcolor="#5aade9"] ;
300 -> 301 ;
302 [label="gini = 0.0\nsamples = 4\nvalue = [0, 0, 0, 4]\nclass = Initiators", fillcolor="#d739e5"] ;
301 -> 302 ;
303 [label="gini = 0.194\nsamples = 101\nvalue = [0, 0, 90, 11]\nclass = Duelists", fillcolor="#51a9e8"] ;
301 -> 303 ;
304 [label="ally4_pre_spike_total_health_loss <= 189.5\ngini = 0.503\nsamples = 21\nvalue = [0, 1, 7, 13]\nclass = Initiators", fillcolor="#eeaaf4"] ;
300 -> 304 ;
305 [label="gini = 0.0\nsamples = 12\nvalue = [0, 0, 0, 12]\nclass = Initiators", fillcolor="#d739e5"] ;
304 -> 305 ;
306 [label="gini = 0.37\nsamples = 9\nvalue = [0, 1, 7, 1]\nclass = Duelists", fillcolor="#6ab6ec"] ;
304 -> 306 ;
307 [label="gini = 0.0\nsamples = 15\nvalue = [0, 0, 0, 15]\nclass = Initiators", fillcolor="#d739e5"] ;
299 -> 307 ;
308 [label="self_pre_spike_total_ability_usage_1 <= 0.5\ngini = 0.647\nsamples = 181\nvalue = [0, 75, 40, 66]\nclass =  Controllers", fillcolor="#f1fdf0"] ;
288 -> 308 ;
309 [label="self_pre_spike_max_loadout_value_loss <= 225.0\ngini = 0.053\nsamples = 74\nvalue = [0, 72, 0, 2]\nclass =  Controllers", fillcolor="#4ce63e"] ;
308 -> 309 ;
310 [label="gini = 0.0\nsamples = 2\nvalue = [0, 0, 0, 2]\nclass = Initiators", fillcolor="#d739e5"] ;
309 -> 310 ;
311 [label="gini = 0.0\nsamples = 72\nvalue = [0, 72, 0, 0]\nclass =  Controllers", fillcolor="#47e539"] ;
309 -> 311 ;
312 [label="pre_spike_healing_used <= 1.0\ngini = 0.502\nsamples = 107\nvalue = [0, 3, 40, 64]\nclass = Initiators", fillcolor="#f1b8f6"] ;
308 -> 312 ;
313 [label="ally1_post_spike_total_health_loss <= 111.5\ngini = 0.405\nsamples = 87\nvalue = [0, 3, 20, 64]\nclass = Initiators", fillcolor="#e57dee"] ;
312 -> 313 ;
314 [label="round_info_round_start <= 1567523.5\ngini = 0.305\nsamples = 78\nvalue = [0, 3, 11, 64]\nclass = Initiators", fillcolor="#df62ea"] ;
313 -> 314 ;
315 [label="gini = 0.123\nsamples = 62\nvalue = [0, 2, 2, 58]\nclass = Initiators", fillcolor="#da46e7"] ;
314 -> 315 ;
316 [label="gini = 0.539\nsamples = 16\nvalue = [0, 1, 9, 6]\nclass = Duelists", fillcolor="#c4e2f7"] ;
314 -> 316 ;
317 [label="gini = 0.0\nsamples = 9\nvalue = [0, 0, 9, 0]\nclass = Duelists", fillcolor="#399de5"] ;
313 -> 317 ;
318 [label="gini = 0.0\nsamples = 20\nvalue = [0, 0, 20, 0]\nclass = Duelists", fillcolor="#399de5"] ;
312 -> 318 ;
319 [label="ally1_post_spike_total_health_loss <= 20.5\ngini = 0.37\nsamples = 182\nvalue = [0, 12, 29, 141]\nclass = Initiators", fillcolor="#e26eec"] ;
269 -> 319 ;
320 [label="pre_spike_shield_used <= 0.5\ngini = 0.275\nsamples = 166\nvalue = [0, 9, 17, 140]\nclass = Initiators", fillcolor="#de5cea"] ;
319 -> 320 ;
321 [label="pre_spike_crowd_control_vision_used <= 1.5\ngini = 0.232\nsamples = 161\nvalue = [0, 4, 17, 140]\nclass = Initiators", fillcolor="#dd56e9"] ;
320 -> 321 ;
322 [label="self_pre_spike_deaths <= 1.5\ngini = 0.188\nsamples = 156\nvalue = [0, 4, 12, 140]\nclass = Initiators", fillcolor="#db4fe8"] ;
321 -> 322 ;
323 [label="ally4_pre_spike_avg_health <= 96.586\ngini = 0.148\nsamples = 152\nvalue = [0, 4, 8, 140]\nclass = Initiators", fillcolor="#da4ae7"] ;
322 -> 323 ;
324 [label="ally3_pre_spike_total_health_loss <= 402.0\ngini = 0.104\nsamples = 147\nvalue = [0, 2, 6, 139]\nclass = Initiators", fillcolor="#d944e6"] ;
323 -> 324 ;
325 [label="gini = 0.08\nsamples = 145\nvalue = [0, 2, 4, 139]\nclass = Initiators", fillcolor="#d941e6"] ;
324 -> 325 ;
326 [label="gini = 0.0\nsamples = 2\nvalue = [0, 0, 2, 0]\nclass = Duelists", fillcolor="#399de5"] ;
324 -> 326 ;
327 [label="ally4_pre_spike_max_health_loss <= 2.0\ngini = 0.64\nsamples = 5\nvalue = [0, 2, 2, 1]\nclass =  Controllers", fillcolor="#ffffff"] ;
323 -> 327 ;
328 [label="gini = 0.0\nsamples = 2\nvalue = [0, 0, 2, 0]\nclass = Duelists", fillcolor="#399de5"] ;
327 -> 328 ;
329 [label="gini = 0.444\nsamples = 3\nvalue = [0, 2, 0, 1]\nclass =  Controllers", fillcolor="#a3f29c"] ;
327 -> 329 ;
330 [label="gini = 0.0\nsamples = 4\nvalue = [0, 0, 4, 0]\nclass = Duelists", fillcolor="#399de5"] ;
322 -> 330 ;
331 [label="gini = 0.0\nsamples = 5\nvalue = [0, 0, 5, 0]\nclass = Duelists", fillcolor="#399de5"] ;
321 -> 331 ;
332 [label="gini = 0.0\nsamples = 5\nvalue = [0, 5, 0, 0]\nclass =  Controllers", fillcolor="#47e539"] ;
320 -> 332 ;
333 [label="self_pre_spike_total_ability_usage_1 <= 1.5\ngini = 0.398\nsamples = 16\nvalue = [0, 3, 12, 1]\nclass = Duelists", fillcolor="#76bbed"] ;
319 -> 333 ;
334 [label="gini = 0.0\nsamples = 12\nvalue = [0, 0, 12, 0]\nclass = Duelists", fillcolor="#399de5"] ;
333 -> 334 ;
335 [label="gini = 0.375\nsamples = 4\nvalue = [0, 3, 0, 1]\nclass =  Controllers", fillcolor="#84ee7b"] ;
333 -> 335 ;
336 [label="self_pre_spike_max_loadout_value_loss <= 245.0\ngini = 0.376\nsamples = 2372\nvalue = [0, 595, 0, 1777]\nclass = Initiators", fillcolor="#e47bee"] ;
268 -> 336 ;
337 [label="pre_spike_crowd_control_mobility_used <= 0.5\ngini = 0.356\nsamples = 160\nvalue = [0, 123, 0, 37]\nclass =  Controllers", fillcolor="#7eed75"] ;
336 -> 337 ;
338 [label="ally4_post_spike_total_health_loss <= 62.0\ngini = 0.164\nsamples = 133\nvalue = [0, 121, 0, 12]\nclass =  Controllers", fillcolor="#59e84d"] ;
337 -> 338 ;
339 [label="self_pre_spike_avg_health <= 40.5\ngini = 0.118\nsamples = 127\nvalue = [0, 119, 0, 8]\nclass =  Controllers", fillcolor="#53e746"] ;
338 -> 339 ;
340 [label="gini = 0.0\nsamples = 2\nvalue = [0, 0, 0, 2]\nclass = Initiators", fillcolor="#d739e5"] ;
339 -> 340 ;
341 [label="opponent0_post_spike_elims <= 1.5\ngini = 0.091\nsamples = 125\nvalue = [0, 119, 0, 6]\nclass =  Controllers", fillcolor="#50e643"] ;
339 -> 341 ;
342 [label="ally3_pre_spike_assists <= 2.5\ngini = 0.077\nsamples = 124\nvalue = [0, 119, 0, 5]\nclass =  Controllers", fillcolor="#4fe641"] ;
341 -> 342 ;
343 [label="round_info_round_length <= 125900.5\ngini = 0.063\nsamples = 123\nvalue = [0, 119, 0, 4]\nclass =  Controllers", fillcolor="#4de640"] ;
342 -> 343 ;
344 [label="gini = 0.048\nsamples = 122\nvalue = [0, 119, 0, 3]\nclass =  Controllers", fillcolor="#4ce63e"] ;
343 -> 344 ;
345 [label="gini = 0.0\nsamples = 1\nvalue = [0, 0, 0, 1]\nclass = Initiators", fillcolor="#d739e5"] ;
343 -> 345 ;
346 [label="gini = 0.0\nsamples = 1\nvalue = [0, 0, 0, 1]\nclass = Initiators", fillcolor="#d739e5"] ;
342 -> 346 ;
347 [label="gini = 0.0\nsamples = 1\nvalue = [0, 0, 0, 1]\nclass = Initiators", fillcolor="#d739e5"] ;
341 -> 347 ;
348 [label="self_pre_spike_total_loadout_value_loss <= 100.0\ngini = 0.444\nsamples = 6\nvalue = [0, 2, 0, 4]\nclass = Initiators", fillcolor="#eb9cf2"] ;
338 -> 348 ;
349 [label="gini = 0.0\nsamples = 4\nvalue = [0, 0, 0, 4]\nclass = Initiators", fillcolor="#d739e5"] ;
348 -> 349 ;
350 [label="gini = 0.0\nsamples = 2\nvalue = [0, 2, 0, 0]\nclass =  Controllers", fillcolor="#47e539"] ;
348 -> 350 ;
351 [label="ally2_pre_spike_total_health_loss <= 15.5\ngini = 0.137\nsamples = 27\nvalue = [0, 2, 0, 25]\nclass = Initiators", fillcolor="#da49e7"] ;
337 -> 351 ;
352 [label="gini = 0.0\nsamples = 2\nvalue = [0, 2, 0, 0]\nclass =  Controllers", fillcolor="#47e539"] ;
351 -> 352 ;
353 [label="gini = 0.0\nsamples = 25\nvalue = [0, 0, 0, 25]\nclass = Initiators", fillcolor="#d739e5"] ;
351 -> 353 ;
354 [label="pre_spike_shield_used <= 0.5\ngini = 0.336\nsamples = 2212\nvalue = [0, 472, 0, 1740]\nclass = Initiators", fillcolor="#e26fec"] ;
336 -> 354 ;
355 [label="post_spike_information_used <= 0.5\ngini = 0.32\nsamples = 2174\nvalue = [0, 434, 0, 1740]\nclass = Initiators", fillcolor="#e16aeb"] ;
354 -> 355 ;
356 [label="pre_spike_crowd_control_mobility_used <= 0.5\ngini = 0.309\nsamples = 2150\nvalue = [0, 410, 0, 1740]\nclass = Initiators", fillcolor="#e068eb"] ;
355 -> 356 ;
357 [label="ally4_pre_spike_total_health_loss <= 74.0\ngini = 0.358\nsamples = 1628\nvalue = [0, 380, 0, 1248]\nclass = Initiators", fillcolor="#e375ed"] ;
356 -> 357 ;
358 [label="ally2_pre_spike_total_health_loss <= 101.5\ngini = 0.498\nsamples = 280\nvalue = [0, 132, 0, 148]\nclass = Initiators", fillcolor="#fbeafc"] ;
357 -> 358 ;
359 [label="self_pre_spike_total_credits_loss <= 4225.0\ngini = 0.293\nsamples = 112\nvalue = [0, 20, 0, 92]\nclass = Initiators", fillcolor="#e064eb"] ;
358 -> 359 ;
360 [label="gini = 0.192\nsamples = 102\nvalue = [0, 11, 0, 91]\nclass = Initiators", fillcolor="#dc51e8"] ;
359 -> 360 ;
361 [label="gini = 0.18\nsamples = 10\nvalue = [0, 9, 0, 1]\nclass =  Controllers", fillcolor="#5be84f"] ;
359 -> 361 ;
362 [label="ally4_pre_spike_avg_health <= 96.617\ngini = 0.444\nsamples = 168\nvalue = [0, 112, 0, 56]\nclass =  Controllers", fillcolor="#a3f29c"] ;
358 -> 362 ;
363 [label="gini = 0.091\nsamples = 84\nvalue = [0, 80, 0, 4]\nclass =  Controllers", fillcolor="#50e643"] ;
362 -> 363 ;
364 [label="gini = 0.472\nsamples = 84\nvalue = [0, 32, 0, 52]\nclass = Initiators", fillcolor="#f0b3f5"] ;
362 -> 364 ;
365 [label="ally1_pre_spike_avg_health <= 48.167\ngini = 0.3\nsamples = 1348\nvalue = [0, 248, 0, 1100]\nclass = Initiators", fillcolor="#e066eb"] ;
357 -> 365 ;
366 [label="self_pre_spike_longest_inv_state_none <= 0.5\ngini = 0.449\nsamples = 47\nvalue = [0, 31, 0, 16]\nclass =  Controllers", fillcolor="#a6f29f"] ;
365 -> 366 ;
367 [label="gini = 0.202\nsamples = 35\nvalue = [0, 31, 0, 4]\nclass =  Controllers", fillcolor="#5fe853"] ;
366 -> 367 ;
368 [label="gini = 0.0\nsamples = 12\nvalue = [0, 0, 0, 12]\nclass = Initiators", fillcolor="#d739e5"] ;
366 -> 368 ;
369 [label="round_info_round_end <= 3134404.0\ngini = 0.278\nsamples = 1301\nvalue = [0, 217, 0, 1084]\nclass = Initiators", fillcolor="#df61ea"] ;
365 -> 369 ;
370 [label="gini = 0.266\nsamples = 1287\nvalue = [0, 203, 0, 1084]\nclass = Initiators", fillcolor="#de5eea"] ;
369 -> 370 ;
371 [label="gini = 0.0\nsamples = 14\nvalue = [0, 14, 0, 0]\nclass =  Controllers", fillcolor="#47e539"] ;
369 -> 371 ;
372 [label="ally2_ultimate_usage <= 1.5\ngini = 0.108\nsamples = 522\nvalue = [0, 30, 0, 492]\nclass = Initiators", fillcolor="#d945e7"] ;
356 -> 372 ;
373 [label="self_pre_spike_movement_metric <= 12.5\ngini = 0.075\nsamples = 512\nvalue = [0, 20, 0, 492]\nclass = Initiators", fillcolor="#d941e6"] ;
372 -> 373 ;
374 [label="round_info_round_start <= 31785.0\ngini = 0.065\nsamples = 508\nvalue = [0, 17, 0, 491]\nclass = Initiators", fillcolor="#d840e6"] ;
373 -> 374 ;
375 [label="gini = 0.49\nsamples = 7\nvalue = [0, 4, 0, 3]\nclass =  Controllers", fillcolor="#d1f8ce"] ;
374 -> 375 ;
376 [label="gini = 0.051\nsamples = 501\nvalue = [0, 13, 0, 488]\nclass = Initiators", fillcolor="#d83ee6"] ;
374 -> 376 ;
377 [label="gini = 0.375\nsamples = 4\nvalue = [0, 3, 0, 1]\nclass =  Controllers", fillcolor="#84ee7b"] ;
373 -> 377 ;
378 [label="gini = 0.0\nsamples = 10\nvalue = [0, 10, 0, 0]\nclass =  Controllers", fillcolor="#47e539"] ;
372 -> 378 ;
379 [label="gini = 0.0\nsamples = 24\nvalue = [0, 24, 0, 0]\nclass =  Controllers", fillcolor="#47e539"] ;
355 -> 379 ;
380 [label="gini = 0.0\nsamples = 38\nvalue = [0, 38, 0, 0]\nclass =  Controllers", fillcolor="#47e539"] ;
354 -> 380 ;
381 [label="self_pre_spike_total_ability_usage_3 <= 0.5\ngini = 0.522\nsamples = 770\nvalue = [0, 470, 57, 243]\nclass =  Controllers", fillcolor="#b0f4aa"] ;
267 -> 381 ;
382 [label="ally2_pre_spike_avg_health <= 85.312\ngini = 0.595\nsamples = 222\nvalue = [0, 43, 57, 122]\nclass = Initiators", fillcolor="#efb1f5"] ;
381 -> 382 ;
383 [label="self_pre_spike_total_ability_usage_2 <= 0.5\ngini = 0.365\nsamples = 110\nvalue = [0, 1, 25, 84]\nclass = Initiators", fillcolor="#e376ed"] ;
382 -> 383 ;
384 [label="ally1_pre_spike_total_health_loss <= 44.0\ngini = 0.444\nsamples = 24\nvalue = [0, 0, 16, 8]\nclass = Duelists", fillcolor="#9ccef2"] ;
383 -> 384 ;
385 [label="gini = 0.0\nsamples = 5\nvalue = [0, 0, 0, 5]\nclass = Initiators", fillcolor="#d739e5"] ;
384 -> 385 ;
386 [label="opponent0_pre_spike_assists <= 0.5\ngini = 0.266\nsamples = 19\nvalue = [0, 0, 16, 3]\nclass = Duelists", fillcolor="#5eafea"] ;
384 -> 386 ;
387 [label="self_post_spike_avg_health <= 68.333\ngini = 0.111\nsamples = 17\nvalue = [0, 0, 16, 1]\nclass = Duelists", fillcolor="#45a3e7"] ;
386 -> 387 ;
388 [label="gini = 0.0\nsamples = 16\nvalue = [0, 0, 16, 0]\nclass = Duelists", fillcolor="#399de5"] ;
387 -> 388 ;
389 [label="gini = 0.0\nsamples = 1\nvalue = [0, 0, 0, 1]\nclass = Initiators", fillcolor="#d739e5"] ;
387 -> 389 ;
390 [label="gini = 0.0\nsamples = 2\nvalue = [0, 0, 0, 2]\nclass = Initiators", fillcolor="#d739e5"] ;
386 -> 390 ;
391 [label="pre_spike_healing_used <= 0.5\ngini = 0.208\nsamples = 86\nvalue = [0, 1, 9, 76]\nclass = Initiators", fillcolor="#dc53e8"] ;
383 -> 391 ;
392 [label="self_pre_spike_avg_ammo_reserve <= 22.25\ngini = 0.137\nsamples = 82\nvalue = [0, 1, 5, 76]\nclass = Initiators", fillcolor="#da48e7"] ;
391 -> 392 ;
393 [label="gini = 0.0\nsamples = 1\nvalue = [0, 0, 1, 0]\nclass = Duelists", fillcolor="#399de5"] ;
392 -> 393 ;
394 [label="ally4_pre_spike_total_health_loss <= 665.5\ngini = 0.117\nsamples = 81\nvalue = [0, 1, 4, 76]\nclass = Initiators", fillcolor="#da46e7"] ;
392 -> 394 ;
395 [label="ally2_post_spike_total_health_loss <= 150.0\ngini = 0.096\nsamples = 80\nvalue = [0, 1, 3, 76]\nclass = Initiators", fillcolor="#d943e6"] ;
394 -> 395 ;
396 [label="opponent4_pre_spike_headshots <= 1.5\ngini = 0.074\nsamples = 79\nvalue = [0, 1, 2, 76]\nclass = Initiators", fillcolor="#d941e6"] ;
395 -> 396 ;
397 [label="gini = 0.05\nsamples = 78\nvalue = [0, 1, 1, 76]\nclass = Initiators", fillcolor="#d83ee6"] ;
396 -> 397 ;
398 [label="gini = 0.0\nsamples = 1\nvalue = [0, 0, 1, 0]\nclass = Duelists", fillcolor="#399de5"] ;
396 -> 398 ;
399 [label="gini = 0.0\nsamples = 1\nvalue = [0, 0, 1, 0]\nclass = Duelists", fillcolor="#399de5"] ;
395 -> 399 ;
400 [label="gini = 0.0\nsamples = 1\nvalue = [0, 0, 1, 0]\nclass = Duelists", fillcolor="#399de5"] ;
394 -> 400 ;
401 [label="gini = 0.0\nsamples = 4\nvalue = [0, 0, 4, 0]\nclass = Duelists", fillcolor="#399de5"] ;
391 -> 401 ;
402 [label="ally2_pre_spike_total_health_loss <= 169.5\ngini = 0.663\nsamples = 112\nvalue = [0, 42, 32, 38]\nclass =  Controllers", fillcolor="#f5fef4"] ;
382 -> 402 ;
403 [label="pre_spike_crowd_control_mobility_used <= 0.5\ngini = 0.53\nsamples = 56\nvalue = [0, 3, 21, 32]\nclass = Initiators", fillcolor="#f2c1f7"] ;
402 -> 403 ;
404 [label="self_pre_spike_avg_loadout_value <= 4146.072\ngini = 0.388\nsamples = 41\nvalue = [0, 2, 8, 31]\nclass = Initiators", fillcolor="#e375ed"] ;
403 -> 404 ;
405 [label="opponent0_pre_spike_headshots <= 2.5\ngini = 0.213\nsamples = 34\nvalue = [0, 1, 3, 30]\nclass = Initiators", fillcolor="#dc53e8"] ;
404 -> 405 ;
406 [label="self_pre_spike_total_firing_time <= 16500.0\ngini = 0.165\nsamples = 33\nvalue = [0, 0, 3, 30]\nclass = Initiators", fillcolor="#db4de8"] ;
405 -> 406 ;
407 [label="ally4_pre_spike_total_health_loss <= 2.0\ngini = 0.117\nsamples = 32\nvalue = [0, 0, 2, 30]\nclass = Initiators", fillcolor="#da46e7"] ;
406 -> 407 ;
408 [label="gini = 0.0\nsamples = 1\nvalue = [0, 0, 1, 0]\nclass = Duelists", fillcolor="#399de5"] ;
407 -> 408 ;
409 [label="gini = 0.062\nsamples = 31\nvalue = [0, 0, 1, 30]\nclass = Initiators", fillcolor="#d840e6"] ;
407 -> 409 ;
410 [label="gini = 0.0\nsamples = 1\nvalue = [0, 0, 1, 0]\nclass = Duelists", fillcolor="#399de5"] ;
406 -> 410 ;
411 [label="gini = 0.0\nsamples = 1\nvalue = [0, 1, 0, 0]\nclass =  Controllers", fillcolor="#47e539"] ;
405 -> 411 ;
412 [label="ally2_pre_spike_max_health_loss <= 14.5\ngini = 0.449\nsamples = 7\nvalue = [0, 1, 5, 1]\nclass = Duelists", fillcolor="#7bbeee"] ;
404 -> 412 ;
413 [label="gini = 0.5\nsamples = 2\nvalue = [0, 1, 0, 1]\nclass =  Controllers", fillcolor="#ffffff"] ;
412 -> 413 ;
414 [label="gini = 0.0\nsamples = 5\nvalue = [0, 0, 5, 0]\nclass = Duelists", fillcolor="#399de5"] ;
412 -> 414 ;
415 [label="self_pre_spike_max_ammo_reserve_loss <= 33.0\ngini = 0.24\nsamples = 15\nvalue = [0, 1, 13, 1]\nclass = Duelists", fillcolor="#55abe9"] ;
403 -> 415 ;
416 [label="gini = 0.0\nsamples = 13\nvalue = [0, 0, 13, 0]\nclass = Duelists", fillcolor="#399de5"] ;
415 -> 416 ;
417 [label="gini = 0.5\nsamples = 2\nvalue = [0, 1, 0, 1]\nclass =  Controllers", fillcolor="#ffffff"] ;
415 -> 417 ;
418 [label="self_pre_spike_total_ability_usage_1 <= 0.5\ngini = 0.465\nsamples = 56\nvalue = [0, 39, 11, 6]\nclass =  Controllers", fillcolor="#8def84"] ;
402 -> 418 ;
419 [label="ally4_pre_spike_elims <= 1.5\ngini = 0.206\nsamples = 44\nvalue = [0, 39, 1, 4]\nclass =  Controllers", fillcolor="#5ee852"] ;
418 -> 419 ;
420 [label="self_pre_spike_total_ammo_reserve_loss <= 59.5\ngini = 0.094\nsamples = 41\nvalue = [0, 39, 1, 1]\nclass =  Controllers", fillcolor="#50e643"] ;
419 -> 420 ;
421 [label="gini = 0.0\nsamples = 39\nvalue = [0, 39, 0, 0]\nclass =  Controllers", fillcolor="#47e539"] ;
420 -> 421 ;
422 [label="gini = 0.5\nsamples = 2\nvalue = [0, 0, 1, 1]\nclass = Duelists", fillcolor="#ffffff"] ;
420 -> 422 ;
423 [label="gini = 0.0\nsamples = 3\nvalue = [0, 0, 0, 3]\nclass = Initiators", fillcolor="#d739e5"] ;
419 -> 423 ;
424 [label="opponent4_pre_spike_headshots <= 0.5\ngini = 0.278\nsamples = 12\nvalue = [0, 0, 10, 2]\nclass = Duelists", fillcolor="#61b1ea"] ;
418 -> 424 ;
425 [label="gini = 0.0\nsamples = 10\nvalue = [0, 0, 10, 0]\nclass = Duelists", fillcolor="#399de5"] ;
424 -> 425 ;
426 [label="gini = 0.0\nsamples = 2\nvalue = [0, 0, 0, 2]\nclass = Initiators", fillcolor="#d739e5"] ;
424 -> 426 ;
427 [label="pre_spike_crowd_control_mobility_used <= 0.5\ngini = 0.344\nsamples = 548\nvalue = [0, 427, 0, 121]\nclass =  Controllers", fillcolor="#7bec71"] ;
381 -> 427 ;
428 [label="pre_spike_crowd_control_general_used <= 0.5\ngini = 0.238\nsamples = 486\nvalue = [0, 419, 0, 67]\nclass =  Controllers", fillcolor="#64e959"] ;
427 -> 428 ;
429 [label="ally4_pre_spike_total_health_loss <= 122.0\ngini = 0.175\nsamples = 464\nvalue = [0, 419, 0, 45]\nclass =  Controllers", fillcolor="#5be84e"] ;
428 -> 429 ;
430 [label="ally2_post_spike_avg_health <= 67.098\ngini = 0.466\nsamples = 81\nvalue = [0, 51, 0, 30]\nclass =  Controllers", fillcolor="#b3f4ad"] ;
429 -> 430 ;
431 [label="round_info_round_end <= 1695796.5\ngini = 0.389\nsamples = 68\nvalue = [0, 50, 0, 18]\nclass =  Controllers", fillcolor="#89ee80"] ;
430 -> 431 ;
432 [label="all_opponent_dead <= 0.5\ngini = 0.497\nsamples = 39\nvalue = [0, 21, 0, 18]\nclass =  Controllers", fillcolor="#e5fbe3"] ;
431 -> 432 ;
433 [label="self_pre_spike_max_credits_loss <= 150.0\ngini = 0.444\nsamples = 24\nvalue = [0, 8, 0, 16]\nclass = Initiators", fillcolor="#eb9cf2"] ;
432 -> 433 ;
434 [label="gini = 0.444\nsamples = 9\nvalue = [0, 6, 0, 3]\nclass =  Controllers", fillcolor="#a3f29c"] ;
433 -> 434 ;
435 [label="gini = 0.231\nsamples = 15\nvalue = [0, 2, 0, 13]\nclass = Initiators", fillcolor="#dd57e9"] ;
433 -> 435 ;
436 [label="self_pre_spike_avg_loadout_value <= 2429.857\ngini = 0.231\nsamples = 15\nvalue = [0, 13, 0, 2]\nclass =  Controllers", fillcolor="#63e957"] ;
432 -> 436 ;
437 [label="gini = 0.444\nsamples = 3\nvalue = [0, 1, 0, 2]\nclass = Initiators", fillcolor="#eb9cf2"] ;
436 -> 437 ;
438 [label="gini = 0.0\nsamples = 12\nvalue = [0, 12, 0, 0]\nclass =  Controllers", fillcolor="#47e539"] ;
436 -> 438 ;
439 [label="gini = 0.0\nsamples = 29\nvalue = [0, 29, 0, 0]\nclass =  Controllers", fillcolor="#47e539"] ;
431 -> 439 ;
440 [label="self_pre_spike_total_firing_time <= 17401.0\ngini = 0.142\nsamples = 13\nvalue = [0, 1, 0, 12]\nclass = Initiators", fillcolor="#da49e7"] ;
430 -> 440 ;
441 [label="gini = 0.0\nsamples = 12\nvalue = [0, 0, 0, 12]\nclass = Initiators", fillcolor="#d739e5"] ;
440 -> 441 ;
442 [label="gini = 0.0\nsamples = 1\nvalue = [0, 1, 0, 0]\nclass =  Controllers", fillcolor="#47e539"] ;
440 -> 442 ;
443 [label="self_pre_spike_movement_metric <= 13.5\ngini = 0.075\nsamples = 383\nvalue = [0, 368, 0, 15]\nclass =  Controllers", fillcolor="#4ee641"] ;
429 -> 443 ;
444 [label="pre_spike_healing_used <= 0.5\ngini = 0.027\nsamples = 372\nvalue = [0, 367, 0, 5]\nclass =  Controllers", fillcolor="#4ae53c"] ;
443 -> 444 ;
445 [label="ally3_post_spike_headshots <= 1.5\ngini = 0.016\nsamples = 370\nvalue = [0, 367, 0, 3]\nclass =  Controllers", fillcolor="#49e53b"] ;
444 -> 445 ;
446 [label="self_post_spike_map_covered <= 0.025\ngini = 0.011\nsamples = 369\nvalue = [0, 367, 0, 2]\nclass =  Controllers", fillcolor="#48e53a"] ;
445 -> 446 ;
447 [label="gini = 0.005\nsamples = 368\nvalue = [0, 367, 0, 1]\nclass =  Controllers", fillcolor="#48e53a"] ;
446 -> 447 ;
448 [label="gini = 0.0\nsamples = 1\nvalue = [0, 0, 0, 1]\nclass = Initiators", fillcolor="#d739e5"] ;
446 -> 448 ;
449 [label="gini = 0.0\nsamples = 1\nvalue = [0, 0, 0, 1]\nclass = Initiators", fillcolor="#d739e5"] ;
445 -> 449 ;
450 [label="gini = 0.0\nsamples = 2\nvalue = [0, 0, 0, 2]\nclass = Initiators", fillcolor="#d739e5"] ;
444 -> 450 ;
451 [label="ally1_post_spike_total_health_loss <= 2.0\ngini = 0.165\nsamples = 11\nvalue = [0, 1, 0, 10]\nclass = Initiators", fillcolor="#db4de8"] ;
443 -> 451 ;
452 [label="gini = 0.0\nsamples = 10\nvalue = [0, 0, 0, 10]\nclass = Initiators", fillcolor="#d739e5"] ;
451 -> 452 ;
453 [label="gini = 0.0\nsamples = 1\nvalue = [0, 1, 0, 0]\nclass =  Controllers", fillcolor="#47e539"] ;
451 -> 453 ;
454 [label="gini = 0.0\nsamples = 22\nvalue = [0, 0, 0, 22]\nclass = Initiators", fillcolor="#d739e5"] ;
428 -> 454 ;
455 [label="pre_spike_shield_used <= 0.5\ngini = 0.225\nsamples = 62\nvalue = [0, 8, 0, 54]\nclass = Initiators", fillcolor="#dd56e9"] ;
427 -> 455 ;
456 [label="gini = 0.0\nsamples = 54\nvalue = [0, 0, 0, 54]\nclass = Initiators", fillcolor="#d739e5"] ;
455 -> 456 ;
457 [label="gini = 0.0\nsamples = 8\nvalue = [0, 8, 0, 0]\nclass =  Controllers", fillcolor="#47e539"] ;
455 -> 457 ;
458 [label="pre_spike_damage_for_team_used <= 0.5\ngini = 0.634\nsamples = 1347\nvalue = [664, 441, 122, 120]\nclass = Sentinels", fillcolor="#f9e0ce"] ;
266 -> 458 ;
459 [label="self_pre_spike_total_ability_usage_2 <= 0.5\ngini = 0.504\nsamples = 984\nvalue = [664, 150, 122, 48]\nclass = Sentinels", fillcolor="#efb185"] ;
458 -> 459 ;
460 [label="pre_spike_crowd_control_mobility_used <= 0.5\ngini = 0.651\nsamples = 293\nvalue = [66, 150, 29, 48]\nclass =  Controllers", fillcolor="#bbf5b6"] ;
459 -> 460 ;
461 [label="pre_spike_crowd_control_vision_used <= 1.5\ngini = 0.502\nsamples = 227\nvalue = [0, 150, 29, 48]\nclass =  Controllers", fillcolor="#96f08e"] ;
460 -> 461 ;
462 [label="ally2_pre_spike_avg_health <= 89.239\ngini = 0.433\nsamples = 206\nvalue = [0, 150, 29, 27]\nclass =  Controllers", fillcolor="#81ed78"] ;
461 -> 462 ;
463 [label="opponent0_post_spike_elims <= 0.5\ngini = 0.266\nsamples = 147\nvalue = [0, 125, 11, 11]\nclass =  Controllers", fillcolor="#65e959"] ;
462 -> 463 ;
464 [label="self_pre_spike_avg_credits <= 1031.25\ngini = 0.18\nsamples = 134\nvalue = [0, 121, 6, 7]\nclass =  Controllers", fillcolor="#5ae84d"] ;
463 -> 464 ;
465 [label="ally4_pre_spike_avg_health <= 84.153\ngini = 0.628\nsamples = 11\nvalue = [0, 4, 5, 2]\nclass = Duelists", fillcolor="#e3f1fb"] ;
464 -> 465 ;
466 [label="gini = 0.0\nsamples = 4\nvalue = [0, 4, 0, 0]\nclass =  Controllers", fillcolor="#47e539"] ;
465 -> 466 ;
467 [label="self_pre_spike_max_ammo_mag_loss <= 1.5\ngini = 0.408\nsamples = 7\nvalue = [0, 0, 5, 2]\nclass = Duelists", fillcolor="#88c4ef"] ;
465 -> 467 ;
468 [label="gini = 0.0\nsamples = 2\nvalue = [0, 0, 0, 2]\nclass = Initiators", fillcolor="#d739e5"] ;
467 -> 468 ;
469 [label="gini = 0.0\nsamples = 5\nvalue = [0, 0, 5, 0]\nclass = Duelists", fillcolor="#399de5"] ;
467 -> 469 ;
470 [label="ally1_pre_spike_elims <= 1.5\ngini = 0.093\nsamples = 123\nvalue = [0, 117, 1, 5]\nclass =  Controllers", fillcolor="#50e643"] ;
464 -> 470 ;
471 [label="self_pre_spike_avg_ammo_mag <= 24.683\ngini = 0.064\nsamples = 121\nvalue = [0, 117, 1, 3]\nclass =  Controllers", fillcolor="#4de640"] ;
470 -> 471 ;
472 [label="gini = 0.033\nsamples = 118\nvalue = [0, 116, 1, 1]\nclass =  Controllers", fillcolor="#4ae53c"] ;
471 -> 472 ;
473 [label="gini = 0.444\nsamples = 3\nvalue = [0, 1, 0, 2]\nclass = Initiators", fillcolor="#eb9cf2"] ;
471 -> 473 ;
474 [label="gini = 0.0\nsamples = 2\nvalue = [0, 0, 0, 2]\nclass = Initiators", fillcolor="#d739e5"] ;
470 -> 474 ;
475 [label="ally3_pre_spike_deaths <= 0.5\ngini = 0.663\nsamples = 13\nvalue = [0, 4, 5, 4]\nclass = Duelists", fillcolor="#e9f4fc"] ;
463 -> 475 ;
476 [label="ally1_pre_spike_total_health_loss <= 183.5\ngini = 0.494\nsamples = 9\nvalue = [0, 0, 5, 4]\nclass = Duelists", fillcolor="#d7ebfa"] ;
475 -> 476 ;
477 [label="gini = 0.0\nsamples = 4\nvalue = [0, 0, 0, 4]\nclass = Initiators", fillcolor="#d739e5"] ;
476 -> 477 ;
478 [label="gini = 0.0\nsamples = 5\nvalue = [0, 0, 5, 0]\nclass = Duelists", fillcolor="#399de5"] ;
476 -> 478 ;
479 [label="gini = 0.0\nsamples = 4\nvalue = [0, 4, 0, 0]\nclass =  Controllers", fillcolor="#47e539"] ;
475 -> 479 ;
480 [label="self_pre_spike_avg_ammo_mag <= 21.58\ngini = 0.654\nsamples = 59\nvalue = [0, 25, 18, 16]\nclass =  Controllers", fillcolor="#e0fbdd"] ;
462 -> 480 ;
481 [label="ally1_pre_spike_total_health_loss <= 150.0\ngini = 0.599\nsamples = 49\nvalue = [0, 25, 17, 7]\nclass =  Controllers", fillcolor="#d1f8ce"] ;
480 -> 481 ;
482 [label="round_info_round_start <= 294193.5\ngini = 0.351\nsamples = 24\nvalue = [0, 19, 3, 2]\nclass =  Controllers", fillcolor="#73eb68"] ;
481 -> 482 ;
483 [label="gini = 0.444\nsamples = 3\nvalue = [0, 0, 1, 2]\nclass = Initiators", fillcolor="#eb9cf2"] ;
482 -> 483 ;
484 [label="ally2_pre_spike_avg_health <= 89.398\ngini = 0.172\nsamples = 21\nvalue = [0, 19, 2, 0]\nclass =  Controllers", fillcolor="#5ae84e"] ;
482 -> 484 ;
485 [label="gini = 0.0\nsamples = 1\nvalue = [0, 0, 1, 0]\nclass = Duelists", fillcolor="#399de5"] ;
484 -> 485 ;
486 [label="gini = 0.095\nsamples = 20\nvalue = [0, 19, 1, 0]\nclass =  Controllers", fillcolor="#51e643"] ;
484 -> 486 ;
487 [label="self_pre_spike_avg_loadout_value <= 3535.944\ngini = 0.589\nsamples = 25\nvalue = [0, 6, 14, 5]\nclass = Duelists", fillcolor="#acd6f4"] ;
481 -> 487 ;
488 [label="ally2_pre_spike_max_health_loss <= 96.5\ngini = 0.49\nsamples = 21\nvalue = [0, 2, 14, 5]\nclass = Duelists", fillcolor="#90c8f0"] ;
487 -> 488 ;
489 [label="gini = 0.628\nsamples = 11\nvalue = [0, 2, 4, 5]\nclass = Initiators", fillcolor="#f9e3fb"] ;
488 -> 489 ;
490 [label="gini = 0.0\nsamples = 10\nvalue = [0, 0, 10, 0]\nclass = Duelists", fillcolor="#399de5"] ;
488 -> 490 ;
491 [label="gini = 0.0\nsamples = 4\nvalue = [0, 4, 0, 0]\nclass =  Controllers", fillcolor="#47e539"] ;
487 -> 491 ;
492 [label="ally4_pre_spike_ultimate_usage <= 0.5\ngini = 0.18\nsamples = 10\nvalue = [0, 0, 1, 9]\nclass = Initiators", fillcolor="#db4fe8"] ;
480 -> 492 ;
493 [label="gini = 0.0\nsamples = 9\nvalue = [0, 0, 0, 9]\nclass = Initiators", fillcolor="#d739e5"] ;
492 -> 493 ;
494 [label="gini = 0.0\nsamples = 1\nvalue = [0, 0, 1, 0]\nclass = Duelists", fillcolor="#399de5"] ;
492 -> 494 ;
495 [label="gini = 0.0\nsamples = 21\nvalue = [0, 0, 0, 21]\nclass = Initiators", fillcolor="#d739e5"] ;
461 -> 495 ;
496 [label="gini = 0.0\nsamples = 66\nvalue = [66, 0, 0, 0]\nclass = Sentinels", fillcolor="#e58139"] ;
460 -> 496 ;
497 [label="self_pre_spike_total_ability_usage_3 <= 0.5\ngini = 0.233\nsamples = 691\nvalue = [598, 0, 93, 0]\nclass = Sentinels", fillcolor="#e99558"] ;
459 -> 497 ;
498 [label="gini = 0.0\nsamples = 390\nvalue = [390, 0, 0, 0]\nclass = Sentinels", fillcolor="#e58139"] ;
497 -> 498 ;
499 [label="ally4_pre_spike_avg_health <= 89.761\ngini = 0.427\nsamples = 301\nvalue = [208, 0, 93, 0]\nclass = Sentinels", fillcolor="#f1b992"] ;
497 -> 499 ;
500 [label="pre_spike_crowd_control_mobility_used <= 0.5\ngini = 0.496\nsamples = 145\nvalue = [66, 0, 79, 0]\nclass = Duelists", fillcolor="#deeffb"] ;
499 -> 500 ;
501 [label="self_pre_spike_total_ability_usage_1 <= 0.5\ngini = 0.43\nsamples = 115\nvalue = [36, 0, 79, 0]\nclass = Duelists", fillcolor="#93caf1"] ;
500 -> 501 ;
502 [label="ally3_pre_spike_max_health_loss <= 96.5\ngini = 0.484\nsamples = 61\nvalue = [36, 0, 25, 0]\nclass = Sentinels", fillcolor="#f7d8c2"] ;
501 -> 502 ;
503 [label="spike_time <= 862601.0\ngini = 0.26\nsamples = 26\nvalue = [22, 0, 4, 0]\nclass = Sentinels", fillcolor="#ea985d"] ;
502 -> 503 ;
504 [label="ally2_post_spike_total_health_loss <= 118.5\ngini = 0.087\nsamples = 22\nvalue = [21, 0, 1, 0]\nclass = Sentinels", fillcolor="#e68742"] ;
503 -> 504 ;
505 [label="gini = 0.0\nsamples = 21\nvalue = [21, 0, 0, 0]\nclass = Sentinels", fillcolor="#e58139"] ;
504 -> 505 ;
506 [label="gini = 0.0\nsamples = 1\nvalue = [0, 0, 1, 0]\nclass = Duelists", fillcolor="#399de5"] ;
504 -> 506 ;
507 [label="gini = 0.375\nsamples = 4\nvalue = [1, 0, 3, 0]\nclass = Duelists", fillcolor="#7bbeee"] ;
503 -> 507 ;
508 [label="self_pre_spike_avg_ammo_reserve <= 51.375\ngini = 0.48\nsamples = 35\nvalue = [14, 0, 21, 0]\nclass = Duelists", fillcolor="#bddef6"] ;
502 -> 508 ;
509 [label="gini = 0.0\nsamples = 16\nvalue = [0, 0, 16, 0]\nclass = Duelists", fillcolor="#399de5"] ;
508 -> 509 ;
510 [label="ally4_pre_spike_avg_health <= 39.5\ngini = 0.388\nsamples = 19\nvalue = [14, 0, 5, 0]\nclass = Sentinels", fillcolor="#eeae80"] ;
508 -> 510 ;
511 [label="gini = 0.0\nsamples = 4\nvalue = [0, 0, 4, 0]\nclass = Duelists", fillcolor="#399de5"] ;
510 -> 511 ;
512 [label="gini = 0.124\nsamples = 15\nvalue = [14, 0, 1, 0]\nclass = Sentinels", fillcolor="#e78a47"] ;
510 -> 512 ;
513 [label="gini = 0.0\nsamples = 54\nvalue = [0, 0, 54, 0]\nclass = Duelists", fillcolor="#399de5"] ;
501 -> 513 ;
514 [label="gini = 0.0\nsamples = 30\nvalue = [30, 0, 0, 0]\nclass = Sentinels", fillcolor="#e58139"] ;
500 -> 514 ;
515 [label="round_info_ally_side_defender <= 0.5\ngini = 0.163\nsamples = 156\nvalue = [142, 0, 14, 0]\nclass = Sentinels", fillcolor="#e88d4d"] ;
499 -> 515 ;
516 [label="self_pre_spike_total_firing_time <= 11901.5\ngini = 0.084\nsamples = 137\nvalue = [131, 0, 6, 0]\nclass = Sentinels", fillcolor="#e68742"] ;
515 -> 516 ;
517 [label="self_pre_spike_avg_ammo_reserve <= 29.5\ngini = 0.045\nsamples = 129\nvalue = [126, 0, 3, 0]\nclass = Sentinels", fillcolor="#e6843e"] ;
516 -> 517 ;
518 [label="gini = 0.0\nsamples = 1\nvalue = [0, 0, 1, 0]\nclass = Duelists", fillcolor="#399de5"] ;
517 -> 518 ;
519 [label="self_post_spike_max_ammo_mag_loss <= 55.0\ngini = 0.031\nsamples = 128\nvalue = [126, 0, 2, 0]\nclass = Sentinels", fillcolor="#e5833c"] ;
517 -> 519 ;
520 [label="opponent2_pre_spike_headshots <= 1.5\ngini = 0.016\nsamples = 126\nvalue = [125, 0, 1, 0]\nclass = Sentinels", fillcolor="#e5823b"] ;
519 -> 520 ;
521 [label="gini = 0.0\nsamples = 124\nvalue = [124, 0, 0, 0]\nclass = Sentinels", fillcolor="#e58139"] ;
520 -> 521 ;
522 [label="gini = 0.5\nsamples = 2\nvalue = [1, 0, 1, 0]\nclass = Sentinels", fillcolor="#ffffff"] ;
520 -> 522 ;
523 [label="gini = 0.5\nsamples = 2\nvalue = [1, 0, 1, 0]\nclass = Sentinels", fillcolor="#ffffff"] ;
519 -> 523 ;
524 [label="self_pre_spike_total_ability_usage_1 <= 0.5\ngini = 0.469\nsamples = 8\nvalue = [5, 0, 3, 0]\nclass = Sentinels", fillcolor="#f5cdb0"] ;
516 -> 524 ;
525 [label="gini = 0.0\nsamples = 5\nvalue = [5, 0, 0, 0]\nclass = Sentinels", fillcolor="#e58139"] ;
524 -> 525 ;
526 [label="gini = 0.0\nsamples = 3\nvalue = [0, 0, 3, 0]\nclass = Duelists", fillcolor="#399de5"] ;
524 -> 526 ;
527 [label="ally1_pre_spike_max_health_loss <= 97.0\ngini = 0.488\nsamples = 19\nvalue = [11, 0, 8, 0]\nclass = Sentinels", fillcolor="#f8ddc9"] ;
515 -> 527 ;
528 [label="opponent4_post_spike_elims <= 2.0\ngini = 0.165\nsamples = 11\nvalue = [10, 0, 1, 0]\nclass = Sentinels", fillcolor="#e88e4d"] ;
527 -> 528 ;
529 [label="gini = 0.0\nsamples = 10\nvalue = [10, 0, 0, 0]\nclass = Sentinels", fillcolor="#e58139"] ;
528 -> 529 ;
530 [label="gini = 0.0\nsamples = 1\nvalue = [0, 0, 1, 0]\nclass = Duelists", fillcolor="#399de5"] ;
528 -> 530 ;
531 [label="opponent1_pre_spike_assists <= 0.5\ngini = 0.219\nsamples = 8\nvalue = [1, 0, 7, 0]\nclass = Duelists", fillcolor="#55abe9"] ;
527 -> 531 ;
532 [label="gini = 0.0\nsamples = 7\nvalue = [0, 0, 7, 0]\nclass = Duelists", fillcolor="#399de5"] ;
531 -> 532 ;
533 [label="gini = 0.0\nsamples = 1\nvalue = [1, 0, 0, 0]\nclass = Sentinels", fillcolor="#e58139"] ;
531 -> 533 ;
534 [label="self_pre_spike_avg_ammo_mag <= 25.155\ngini = 0.318\nsamples = 363\nvalue = [0, 291, 0, 72]\nclass =  Controllers", fillcolor="#75eb6a"] ;
458 -> 534 ;
535 [label="ally1_pre_spike_total_health_loss <= 311.5\ngini = 0.263\nsamples = 341\nvalue = [0, 288, 0, 53]\nclass =  Controllers", fillcolor="#69ea5d"] ;
534 -> 535 ;
536 [label="ally2_pre_spike_max_health_loss <= 79.5\ngini = 0.212\nsamples = 323\nvalue = [0, 284, 0, 39]\nclass =  Controllers", fillcolor="#60e954"] ;
535 -> 536 ;
537 [label="self_pre_spike_map_covered <= 0.36\ngini = 0.499\nsamples = 31\nvalue = [0, 16, 0, 15]\nclass =  Controllers", fillcolor="#f4fdf3"] ;
536 -> 537 ;
538 [label="self_pre_spike_max_health_loss <= 4.0\ngini = 0.231\nsamples = 15\nvalue = [0, 13, 0, 2]\nclass =  Controllers", fillcolor="#63e957"] ;
537 -> 538 ;
539 [label="gini = 0.0\nsamples = 2\nvalue = [0, 0, 0, 2]\nclass = Initiators", fillcolor="#d739e5"] ;
538 -> 539 ;
540 [label="gini = 0.0\nsamples = 13\nvalue = [0, 13, 0, 0]\nclass =  Controllers", fillcolor="#47e539"] ;
538 -> 540 ;
541 [label="ally2_pre_spike_ultimate_usage <= 0.5\ngini = 0.305\nsamples = 16\nvalue = [0, 3, 0, 13]\nclass = Initiators", fillcolor="#e067eb"] ;
537 -> 541 ;
542 [label="ally1_pre_spike_avg_health <= 35.655\ngini = 0.133\nsamples = 14\nvalue = [0, 1, 0, 13]\nclass = Initiators", fillcolor="#da48e7"] ;
541 -> 542 ;
543 [label="gini = 0.0\nsamples = 1\nvalue = [0, 1, 0, 0]\nclass =  Controllers", fillcolor="#47e539"] ;
542 -> 543 ;
544 [label="gini = 0.0\nsamples = 13\nvalue = [0, 0, 0, 13]\nclass = Initiators", fillcolor="#d739e5"] ;
542 -> 544 ;
545 [label="gini = 0.0\nsamples = 2\nvalue = [0, 2, 0, 0]\nclass =  Controllers", fillcolor="#47e539"] ;
541 -> 545 ;
546 [label="ally1_pre_spike_deaths <= 1.5\ngini = 0.151\nsamples = 292\nvalue = [0, 268, 0, 24]\nclass =  Controllers", fillcolor="#57e74b"] ;
536 -> 546 ;
547 [label="self_pre_spike_max_credits_loss <= 4550.0\ngini = 0.129\nsamples = 288\nvalue = [0, 268, 0, 20]\nclass =  Controllers", fillcolor="#55e748"] ;
546 -> 547 ;
548 [label="self_pre_spike_total_ability_usage_2 <= 0.5\ngini = 0.107\nsamples = 282\nvalue = [0, 266, 0, 16]\nclass =  Controllers", fillcolor="#52e745"] ;
547 -> 548 ;
549 [label="gini = 0.0\nsamples = 2\nvalue = [0, 0, 0, 2]\nclass = Initiators", fillcolor="#d739e5"] ;
548 -> 549 ;
550 [label="ally4_pre_spike_deaths <= 1.5\ngini = 0.095\nsamples = 280\nvalue = [0, 266, 0, 14]\nclass =  Controllers", fillcolor="#51e643"] ;
548 -> 550 ;
551 [label="self_longest_gun_primary_stinger <= 0.5\ngini = 0.083\nsamples = 278\nvalue = [0, 266, 0, 12]\nclass =  Controllers", fillcolor="#4fe642"] ;
550 -> 551 ;
552 [label="gini = 0.076\nsamples = 277\nvalue = [0, 266, 0, 11]\nclass =  Controllers", fillcolor="#4fe641"] ;
551 -> 552 ;
553 [label="gini = 0.0\nsamples = 1\nvalue = [0, 0, 0, 1]\nclass = Initiators", fillcolor="#d739e5"] ;
551 -> 553 ;
554 [label="gini = 0.0\nsamples = 2\nvalue = [0, 0, 0, 2]\nclass = Initiators", fillcolor="#d739e5"] ;
550 -> 554 ;
555 [label="self_pre_spike_avg_loadout_value <= 3699.722\ngini = 0.444\nsamples = 6\nvalue = [0, 2, 0, 4]\nclass = Initiators", fillcolor="#eb9cf2"] ;
547 -> 555 ;
556 [label="gini = 0.0\nsamples = 4\nvalue = [0, 0, 0, 4]\nclass = Initiators", fillcolor="#d739e5"] ;
555 -> 556 ;
557 [label="gini = 0.0\nsamples = 2\nvalue = [0, 2, 0, 0]\nclass =  Controllers", fillcolor="#47e539"] ;
555 -> 557 ;
558 [label="gini = 0.0\nsamples = 4\nvalue = [0, 0, 0, 4]\nclass = Initiators", fillcolor="#d739e5"] ;
546 -> 558 ;
559 [label="ally1_pre_spike_elims <= 1.5\ngini = 0.346\nsamples = 18\nvalue = [0, 4, 0, 14]\nclass = Initiators", fillcolor="#e272ec"] ;
535 -> 559 ;
560 [label="gini = 0.0\nsamples = 13\nvalue = [0, 0, 0, 13]\nclass = Initiators", fillcolor="#d739e5"] ;
559 -> 560 ;
561 [label="ally4_pre_spike_headshots <= 1.0\ngini = 0.32\nsamples = 5\nvalue = [0, 4, 0, 1]\nclass =  Controllers", fillcolor="#75ec6a"] ;
559 -> 561 ;
562 [label="gini = 0.0\nsamples = 4\nvalue = [0, 4, 0, 0]\nclass =  Controllers", fillcolor="#47e539"] ;
561 -> 562 ;
563 [label="gini = 0.0\nsamples = 1\nvalue = [0, 0, 0, 1]\nclass = Initiators", fillcolor="#d739e5"] ;
561 -> 563 ;
564 [label="self_pre_spike_map_covered <= 0.242\ngini = 0.236\nsamples = 22\nvalue = [0, 3, 0, 19]\nclass = Initiators", fillcolor="#dd58e9"] ;
534 -> 564 ;
565 [label="gini = 0.375\nsamples = 4\nvalue = [0, 3, 0, 1]\nclass =  Controllers", fillcolor="#84ee7b"] ;
564 -> 565 ;
566 [label="gini = 0.0\nsamples = 18\nvalue = [0, 0, 0, 18]\nclass = Initiators", fillcolor="#d739e5"] ;
564 -> 566 ;
567 [label="pre_spike_healing_used <= 0.5\ngini = 0.45\nsamples = 2440\nvalue = [67, 1721, 109, 543]\nclass =  Controllers", fillcolor="#8def84"] ;
1 -> 567 ;
568 [label="pre_spike_crowd_control_vision_used <= 1.5\ngini = 0.385\nsamples = 2253\nvalue = [41, 1721, 109, 382]\nclass =  Controllers", fillcolor="#7bec71"] ;
567 -> 568 ;
569 [label="pre_spike_damage_for_team_used <= 0.5\ngini = 0.722\nsamples = 171\nvalue = [37, 22, 54, 58]\nclass = Initiators", fillcolor="#fef8fe"] ;
568 -> 569 ;
570 [label="pre_spike_shield_used <= 0.5\ngini = 0.629\nsamples = 107\nvalue = [29, 22, 54, 2]\nclass = Duelists", fillcolor="#c0e0f7"] ;
569 -> 570 ;
571 [label="pre_spike_crowd_control_vision_used <= 0.5\ngini = 0.479\nsamples = 85\nvalue = [29, 0, 54, 2]\nclass = Duelists", fillcolor="#a7d3f3"] ;
570 -> 571 ;
572 [label="self_pre_spike_avg_credits <= 2318.75\ngini = 0.408\nsamples = 37\nvalue = [27, 0, 9, 1]\nclass = Sentinels", fillcolor="#eeae80"] ;
571 -> 572 ;
573 [label="self_pre_spike_total_ammo_mag_loss <= 80.0\ngini = 0.539\nsamples = 16\nvalue = [6, 0, 9, 1]\nclass = Duelists", fillcolor="#c4e2f7"] ;
572 -> 573 ;
574 [label="opponent3_post_spike_assists <= 0.5\ngini = 0.18\nsamples = 10\nvalue = [0, 0, 9, 1]\nclass = Duelists", fillcolor="#4fa8e8"] ;
573 -> 574 ;
575 [label="gini = 0.0\nsamples = 9\nvalue = [0, 0, 9, 0]\nclass = Duelists", fillcolor="#399de5"] ;
574 -> 575 ;
576 [label="gini = 0.0\nsamples = 1\nvalue = [0, 0, 0, 1]\nclass = Initiators", fillcolor="#d739e5"] ;
574 -> 576 ;
577 [label="gini = 0.0\nsamples = 6\nvalue = [6, 0, 0, 0]\nclass = Sentinels", fillcolor="#e58139"] ;
573 -> 577 ;
578 [label="gini = 0.0\nsamples = 21\nvalue = [21, 0, 0, 0]\nclass = Sentinels", fillcolor="#e58139"] ;
572 -> 578 ;
579 [label="pre_spike_crowd_control_mobility_used <= 0.5\ngini = 0.119\nsamples = 48\nvalue = [2, 0, 45, 1]\nclass = Duelists", fillcolor="#46a3e7"] ;
571 -> 579 ;
580 [label="gini = 0.0\nsamples = 45\nvalue = [0, 0, 45, 0]\nclass = Duelists", fillcolor="#399de5"] ;
579 -> 580 ;
581 [label="gini = 0.444\nsamples = 3\nvalue = [2, 0, 0, 1]\nclass = Sentinels", fillcolor="#f2c09c"] ;
579 -> 581 ;
582 [label="gini = 0.0\nsamples = 22\nvalue = [0, 22, 0, 0]\nclass =  Controllers", fillcolor="#47e539"] ;
570 -> 582 ;
583 [label="pre_spike_shield_used <= 1.0\ngini = 0.219\nsamples = 64\nvalue = [8, 0, 0, 56]\nclass = Initiators", fillcolor="#dd55e9"] ;
569 -> 583 ;
584 [label="gini = 0.0\nsamples = 56\nvalue = [0, 0, 0, 56]\nclass = Initiators", fillcolor="#d739e5"] ;
583 -> 584 ;
585 [label="gini = 0.0\nsamples = 8\nvalue = [8, 0, 0, 0]\nclass = Sentinels", fillcolor="#e58139"] ;
583 -> 585 ;
586 [label="self_pre_spike_total_ability_usage_1 <= 0.5\ngini = 0.309\nsamples = 2082\nvalue = [4, 1699, 55, 324]\nclass =  Controllers", fillcolor="#6feb64"] ;
568 -> 586 ;
587 [label="ally1_pre_spike_max_health_loss <= 7.5\ngini = 0.418\nsamples = 1143\nvalue = [0, 810, 11, 322]\nclass =  Controllers", fillcolor="#92f089"] ;
586 -> 587 ;
588 [label="self_longest_inv_state_melee <= 0.5\ngini = 0.389\nsamples = 140\nvalue = [0, 37, 0, 103]\nclass = Initiators", fillcolor="#e580ee"] ;
587 -> 588 ;
589 [label="gini = 0.0\nsamples = 19\nvalue = [0, 19, 0, 0]\nclass =  Controllers", fillcolor="#47e539"] ;
588 -> 589 ;
590 [label="ally1_pre_spike_avg_health <= 97.302\ngini = 0.253\nsamples = 121\nvalue = [0, 18, 0, 103]\nclass = Initiators", fillcolor="#de5cea"] ;
588 -> 590 ;
591 [label="ally4_pre_spike_avg_health <= 96.043\ngini = 0.043\nsamples = 92\nvalue = [0, 2, 0, 90]\nclass = Initiators", fillcolor="#d83de6"] ;
590 -> 591 ;
592 [label="ally4_pre_spike_total_health_loss <= 278.0\ngini = 0.022\nsamples = 91\nvalue = [0, 1, 0, 90]\nclass = Initiators", fillcolor="#d73be5"] ;
591 -> 592 ;
593 [label="gini = 0.0\nsamples = 90\nvalue = [0, 0, 0, 90]\nclass = Initiators", fillcolor="#d739e5"] ;
592 -> 593 ;
594 [label="gini = 0.0\nsamples = 1\nvalue = [0, 1, 0, 0]\nclass =  Controllers", fillcolor="#47e539"] ;
592 -> 594 ;
595 [label="gini = 0.0\nsamples = 1\nvalue = [0, 1, 0, 0]\nclass =  Controllers", fillcolor="#47e539"] ;
591 -> 595 ;
596 [label="ally3_pre_spike_total_health_loss <= 231.0\ngini = 0.495\nsamples = 29\nvalue = [0, 16, 0, 13]\nclass =  Controllers", fillcolor="#dcfada"] ;
590 -> 596 ;
597 [label="ally2_pre_spike_headshots <= 0.5\ngini = 0.32\nsamples = 20\nvalue = [0, 16, 0, 4]\nclass =  Controllers", fillcolor="#75ec6a"] ;
596 -> 597 ;
598 [label="gini = 0.0\nsamples = 15\nvalue = [0, 15, 0, 0]\nclass =  Controllers", fillcolor="#47e539"] ;
597 -> 598 ;
599 [label="ally3_pre_spike_elims <= 1.5\ngini = 0.32\nsamples = 5\nvalue = [0, 1, 0, 4]\nclass = Initiators", fillcolor="#e16aec"] ;
597 -> 599 ;
600 [label="gini = 0.0\nsamples = 4\nvalue = [0, 0, 0, 4]\nclass = Initiators", fillcolor="#d739e5"] ;
599 -> 600 ;
601 [label="gini = 0.0\nsamples = 1\nvalue = [0, 1, 0, 0]\nclass =  Controllers", fillcolor="#47e539"] ;
599 -> 601 ;
602 [label="gini = 0.0\nsamples = 9\nvalue = [0, 0, 0, 9]\nclass = Initiators", fillcolor="#d739e5"] ;
596 -> 602 ;
603 [label="self_pre_spike_total_loadout_value_loss <= 1608.0\ngini = 0.358\nsamples = 1003\nvalue = [0, 773, 11, 219]\nclass =  Controllers", fillcolor="#7ded73"] ;
587 -> 603 ;
604 [label="ally1_post_spike_avg_health <= 97.667\ngini = 0.158\nsamples = 491\nvalue = [0, 449, 4, 38]\nclass =  Controllers", fillcolor="#58e74b"] ;
603 -> 604 ;
605 [label="round_info_round_length <= 30388.0\ngini = 0.133\nsamples = 480\nvalue = [0, 446, 4, 30]\nclass =  Controllers", fillcolor="#55e748"] ;
604 -> 605 ;
606 [label="self_pre_spike_avg_ammo_reserve <= 55.833\ngini = 0.499\nsamples = 23\nvalue = [0, 11, 0, 12]\nclass = Initiators", fillcolor="#fceffd"] ;
605 -> 606 ;
607 [label="gini = 0.0\nsamples = 10\nvalue = [0, 10, 0, 0]\nclass =  Controllers", fillcolor="#47e539"] ;
606 -> 607 ;
608 [label="self_pre_spike_avg_credits <= 1337.5\ngini = 0.142\nsamples = 13\nvalue = [0, 1, 0, 12]\nclass = Initiators", fillcolor="#da49e7"] ;
606 -> 608 ;
609 [label="gini = 0.0\nsamples = 1\nvalue = [0, 1, 0, 0]\nclass =  Controllers", fillcolor="#47e539"] ;
608 -> 609 ;
610 [label="gini = 0.0\nsamples = 12\nvalue = [0, 0, 0, 12]\nclass = Initiators", fillcolor="#d739e5"] ;
608 -> 610 ;
611 [label="self_pre_spike_total_ability_usage_2 <= 1.5\ngini = 0.092\nsamples = 457\nvalue = [0, 435, 4, 18]\nclass =  Controllers", fillcolor="#50e643"] ;
605 -> 611 ;
612 [label="opponent0_post_spike_headshots <= 2.5\ngini = 0.072\nsamples = 452\nvalue = [0, 435, 0, 17]\nclass =  Controllers", fillcolor="#4ee641"] ;
611 -> 612 ;
613 [label="opponent0_pre_spike_assists <= 2.5\ngini = 0.064\nsamples = 450\nvalue = [0, 435, 0, 15]\nclass =  Controllers", fillcolor="#4de640"] ;
612 -> 613 ;
614 [label="ally4_pre_spike_avg_health <= 25.913\ngini = 0.056\nsamples = 448\nvalue = [0, 435, 0, 13]\nclass =  Controllers", fillcolor="#4ce63f"] ;
613 -> 614 ;
615 [label="gini = 0.5\nsamples = 6\nvalue = [0, 3, 0, 3]\nclass =  Controllers", fillcolor="#ffffff"] ;
614 -> 615 ;
616 [label="gini = 0.044\nsamples = 442\nvalue = [0, 432, 0, 10]\nclass =  Controllers", fillcolor="#4be63e"] ;
614 -> 616 ;
617 [label="gini = 0.0\nsamples = 2\nvalue = [0, 0, 0, 2]\nclass = Initiators", fillcolor="#d739e5"] ;
613 -> 617 ;
618 [label="gini = 0.0\nsamples = 2\nvalue = [0, 0, 0, 2]\nclass = Initiators", fillcolor="#d739e5"] ;
612 -> 618 ;
619 [label="self_pre_spike_avg_ammo_reserve <= 40.25\ngini = 0.32\nsamples = 5\nvalue = [0, 0, 4, 1]\nclass = Duelists", fillcolor="#6ab6ec"] ;
611 -> 619 ;
620 [label="gini = 0.0\nsamples = 4\nvalue = [0, 0, 4, 0]\nclass = Duelists", fillcolor="#399de5"] ;
619 -> 620 ;
621 [label="gini = 0.0\nsamples = 1\nvalue = [0, 0, 0, 1]\nclass = Initiators", fillcolor="#d739e5"] ;
619 -> 621 ;
622 [label="ally4_pre_spike_avg_health <= 68.778\ngini = 0.397\nsamples = 11\nvalue = [0, 3, 0, 8]\nclass = Initiators", fillcolor="#e683ef"] ;
604 -> 622 ;
623 [label="gini = 0.0\nsamples = 8\nvalue = [0, 0, 0, 8]\nclass = Initiators", fillcolor="#d739e5"] ;
622 -> 623 ;
624 [label="gini = 0.0\nsamples = 3\nvalue = [0, 3, 0, 0]\nclass =  Controllers", fillcolor="#47e539"] ;
622 -> 624 ;
625 [label="self_pre_spike_map_covered <= 0.042\ngini = 0.474\nsamples = 512\nvalue = [0, 324, 7, 181]\nclass =  Controllers", fillcolor="#b0f4a9"] ;
603 -> 625 ;
626 [label="ally1_pre_spike_avg_health <= 71.451\ngini = 0.21\nsamples = 43\nvalue = [0, 4, 1, 38]\nclass = Initiators", fillcolor="#dc52e8"] ;
625 -> 626 ;
627 [label="gini = 0.0\nsamples = 37\nvalue = [0, 0, 0, 37]\nclass = Initiators", fillcolor="#d739e5"] ;
626 -> 627 ;
628 [label="self_pre_spike_total_ability_usage_2 <= 1.5\ngini = 0.5\nsamples = 6\nvalue = [0, 4, 1, 1]\nclass =  Controllers", fillcolor="#91ef88"] ;
626 -> 628 ;
629 [label="gini = 0.0\nsamples = 4\nvalue = [0, 4, 0, 0]\nclass =  Controllers", fillcolor="#47e539"] ;
628 -> 629 ;
630 [label="gini = 0.5\nsamples = 2\nvalue = [0, 0, 1, 1]\nclass = Duelists", fillcolor="#ffffff"] ;
628 -> 630 ;
631 [label="self_pre_spike_movement_metric <= 2.5\ngini = 0.441\nsamples = 469\nvalue = [0, 320, 6, 143]\nclass =  Controllers", fillcolor="#9bf193"] ;
625 -> 631 ;
632 [label="ally4_pre_spike_max_health_loss <= 15.0\ngini = 0.132\nsamples = 114\nvalue = [0, 106, 1, 7]\nclass =  Controllers", fillcolor="#55e748"] ;
631 -> 632 ;
633 [label="ally3_pre_spike_avg_health <= 98.0\ngini = 0.594\nsamples = 8\nvalue = [0, 3, 1, 4]\nclass = Initiators", fillcolor="#f7d7fa"] ;
632 -> 633 ;
634 [label="opponent1_pre_spike_deaths <= 0.5\ngini = 0.56\nsamples = 5\nvalue = [0, 3, 1, 1]\nclass =  Controllers", fillcolor="#a3f29c"] ;
633 -> 634 ;
635 [label="gini = 0.5\nsamples = 2\nvalue = [0, 0, 1, 1]\nclass = Duelists", fillcolor="#ffffff"] ;
634 -> 635 ;
636 [label="gini = 0.0\nsamples = 3\nvalue = [0, 3, 0, 0]\nclass =  Controllers", fillcolor="#47e539"] ;
634 -> 636 ;
637 [label="gini = 0.0\nsamples = 3\nvalue = [0, 0, 0, 3]\nclass = Initiators", fillcolor="#d739e5"] ;
633 -> 637 ;
638 [label="self_pre_spike_total_credits_loss <= 9550.0\ngini = 0.055\nsamples = 106\nvalue = [0, 103, 0, 3]\nclass =  Controllers", fillcolor="#4ce63f"] ;
632 -> 638 ;
639 [label="self_pre_spike_max_credits_loss <= 4575.0\ngini = 0.019\nsamples = 104\nvalue = [0, 103, 0, 1]\nclass =  Controllers", fillcolor="#49e53b"] ;
638 -> 639 ;
640 [label="gini = 0.0\nsamples = 103\nvalue = [0, 103, 0, 0]\nclass =  Controllers", fillcolor="#47e539"] ;
639 -> 640 ;
641 [label="gini = 0.0\nsamples = 1\nvalue = [0, 0, 0, 1]\nclass = Initiators", fillcolor="#d739e5"] ;
639 -> 641 ;
642 [label="gini = 0.0\nsamples = 2\nvalue = [0, 0, 0, 2]\nclass = Initiators", fillcolor="#d739e5"] ;
638 -> 642 ;
643 [label="self_post_spike_avg_ammo_mag <= 14.676\ngini = 0.49\nsamples = 355\nvalue = [0, 214, 5, 136]\nclass =  Controllers", fillcolor="#bdf6b8"] ;
631 -> 643 ;
644 [label="ally3_pre_spike_total_health_loss <= 163.5\ngini = 0.51\nsamples = 278\nvalue = [0, 144, 3, 131]\nclass =  Controllers", fillcolor="#effded"] ;
643 -> 644 ;
645 [label="ally3_pre_spike_total_health_loss <= 44.0\ngini = 0.46\nsamples = 167\nvalue = [0, 60, 0, 107]\nclass = Initiators", fillcolor="#eda8f4"] ;
644 -> 645 ;
646 [label="opponent4_pre_spike_assists <= 0.5\ngini = 0.284\nsamples = 35\nvalue = [0, 29, 0, 6]\nclass =  Controllers", fillcolor="#6dea62"] ;
645 -> 646 ;
647 [label="gini = 0.124\nsamples = 30\nvalue = [0, 28, 0, 2]\nclass =  Controllers", fillcolor="#54e747"] ;
646 -> 647 ;
648 [label="gini = 0.32\nsamples = 5\nvalue = [0, 1, 0, 4]\nclass = Initiators", fillcolor="#e16aec"] ;
646 -> 648 ;
649 [label="self_pre_spike_avg_ammo_mag <= 17.926\ngini = 0.359\nsamples = 132\nvalue = [0, 31, 0, 101]\nclass = Initiators", fillcolor="#e376ed"] ;
645 -> 649 ;
650 [label="gini = 0.461\nsamples = 36\nvalue = [0, 23, 0, 13]\nclass =  Controllers", fillcolor="#aff4a9"] ;
649 -> 650 ;
651 [label="gini = 0.153\nsamples = 96\nvalue = [0, 8, 0, 88]\nclass = Initiators", fillcolor="#db4be7"] ;
649 -> 651 ;
652 [label="ally3_pre_spike_total_health_loss <= 264.5\ngini = 0.38\nsamples = 111\nvalue = [0, 84, 3, 24]\nclass =  Controllers", fillcolor="#80ed76"] ;
644 -> 652 ;
653 [label="pre_spike_information_used <= 2.5\ngini = 0.084\nsamples = 69\nvalue = [0, 66, 2, 1]\nclass =  Controllers", fillcolor="#4fe642"] ;
652 -> 653 ;
654 [label="gini = 0.029\nsamples = 67\nvalue = [0, 66, 0, 1]\nclass =  Controllers", fillcolor="#4ae53c"] ;
653 -> 654 ;
655 [label="gini = 0.0\nsamples = 2\nvalue = [0, 0, 2, 0]\nclass = Duelists", fillcolor="#399de5"] ;
653 -> 655 ;
656 [label="self_pre_spike_headshots <= 0.5\ngini = 0.516\nsamples = 42\nvalue = [0, 18, 1, 23]\nclass = Initiators", fillcolor="#f7d6fa"] ;
652 -> 656 ;
657 [label="gini = 0.335\nsamples = 20\nvalue = [0, 16, 1, 3]\nclass =  Controllers", fillcolor="#72eb68"] ;
656 -> 657 ;
658 [label="gini = 0.165\nsamples = 22\nvalue = [0, 2, 0, 20]\nclass = Initiators", fillcolor="#db4de8"] ;
656 -> 658 ;
659 [label="self_pre_spike_total_ability_usage_2 <= 1.5\ngini = 0.169\nsamples = 77\nvalue = [0, 70, 2, 5]\nclass =  Controllers", fillcolor="#59e84c"] ;
643 -> 659 ;
660 [label="self_pre_spike_avg_credits <= 113.5\ngini = 0.124\nsamples = 75\nvalue = [0, 70, 0, 5]\nclass =  Controllers", fillcolor="#54e747"] ;
659 -> 660 ;
661 [label="gini = 0.0\nsamples = 2\nvalue = [0, 0, 0, 2]\nclass = Initiators", fillcolor="#d739e5"] ;
660 -> 661 ;
662 [label="self_pre_spike_total_shield_loss <= 50.5\ngini = 0.079\nsamples = 73\nvalue = [0, 70, 0, 3]\nclass =  Controllers", fillcolor="#4fe641"] ;
660 -> 662 ;
663 [label="gini = 0.028\nsamples = 70\nvalue = [0, 69, 0, 1]\nclass =  Controllers", fillcolor="#4ae53c"] ;
662 -> 663 ;
664 [label="gini = 0.444\nsamples = 3\nvalue = [0, 1, 0, 2]\nclass = Initiators", fillcolor="#eb9cf2"] ;
662 -> 664 ;
665 [label="gini = 0.0\nsamples = 2\nvalue = [0, 0, 2, 0]\nclass = Duelists", fillcolor="#399de5"] ;
659 -> 665 ;
666 [label="self_pre_spike_total_ability_usage_2 <= 2.5\ngini = 0.101\nsamples = 939\nvalue = [4, 889, 44, 2]\nclass =  Controllers", fillcolor="#51e644"] ;
586 -> 666 ;
667 [label="self_pre_spike_total_ability_usage_2 <= 1.5\ngini = 0.049\nsamples = 912\nvalue = [0, 889, 22, 1]\nclass =  Controllers", fillcolor="#4ce63e"] ;
666 -> 667 ;
668 [label="ally1_post_spike_total_health_loss <= 312.5\ngini = 0.005\nsamples = 834\nvalue = [0, 832, 2, 0]\nclass =  Controllers", fillcolor="#47e539"] ;
667 -> 668 ;
669 [label="self_pre_spike_max_loadout_value_loss <= 125.0\ngini = 0.002\nsamples = 833\nvalue = [0, 832, 1, 0]\nclass =  Controllers", fillcolor="#47e539"] ;
668 -> 669 ;
670 [label="gini = 0.0\nsamples = 1\nvalue = [0, 0, 1, 0]\nclass = Duelists", fillcolor="#399de5"] ;
669 -> 670 ;
671 [label="gini = 0.0\nsamples = 832\nvalue = [0, 832, 0, 0]\nclass =  Controllers", fillcolor="#47e539"] ;
669 -> 671 ;
672 [label="gini = 0.0\nsamples = 1\nvalue = [0, 0, 1, 0]\nclass = Duelists", fillcolor="#399de5"] ;
668 -> 672 ;
673 [label="pre_spike_damage_for_team_used <= 0.5\ngini = 0.4\nsamples = 78\nvalue = [0, 57, 20, 1]\nclass =  Controllers", fillcolor="#8aee81"] ;
667 -> 673 ;
674 [label="ally4_post_spike_total_health_loss <= 77.5\ngini = 0.091\nsamples = 21\nvalue = [0, 1, 20, 0]\nclass = Duelists", fillcolor="#43a2e6"] ;
673 -> 674 ;
675 [label="gini = 0.0\nsamples = 20\nvalue = [0, 0, 20, 0]\nclass = Duelists", fillcolor="#399de5"] ;
674 -> 675 ;
676 [label="gini = 0.0\nsamples = 1\nvalue = [0, 1, 0, 0]\nclass =  Controllers", fillcolor="#47e539"] ;
674 -> 676 ;
677 [label="opponent4_pre_spike_elims <= 2.5\ngini = 0.034\nsamples = 57\nvalue = [0, 56, 0, 1]\nclass =  Controllers", fillcolor="#4ae53d"] ;
673 -> 677 ;
678 [label="gini = 0.0\nsamples = 56\nvalue = [0, 56, 0, 0]\nclass =  Controllers", fillcolor="#47e539"] ;
677 -> 678 ;
679 [label="gini = 0.0\nsamples = 1\nvalue = [0, 0, 0, 1]\nclass = Initiators", fillcolor="#d739e5"] ;
677 -> 679 ;
680 [label="pre_spike_crowd_control_mobility_used <= 1.0\ngini = 0.313\nsamples = 27\nvalue = [4, 0, 22, 1]\nclass = Duelists", fillcolor="#64b2eb"] ;
666 -> 680 ;
681 [label="gini = 0.0\nsamples = 22\nvalue = [0, 0, 22, 0]\nclass = Duelists", fillcolor="#399de5"] ;
680 -> 681 ;
682 [label="ally2_post_spike_total_health_loss <= 308.5\ngini = 0.32\nsamples = 5\nvalue = [4, 0, 0, 1]\nclass = Sentinels", fillcolor="#eca06a"] ;
680 -> 682 ;
683 [label="gini = 0.0\nsamples = 4\nvalue = [4, 0, 0, 0]\nclass = Sentinels", fillcolor="#e58139"] ;
682 -> 683 ;
684 [label="gini = 0.0\nsamples = 1\nvalue = [0, 0, 0, 1]\nclass = Initiators", fillcolor="#d739e5"] ;
682 -> 684 ;
685 [label="pre_spike_crowd_control_vision_used <= 0.5\ngini = 0.239\nsamples = 187\nvalue = [26, 0, 0, 161]\nclass = Initiators", fillcolor="#dd59e9"] ;
567 -> 685 ;
686 [label="gini = 0.0\nsamples = 26\nvalue = [26, 0, 0, 0]\nclass = Sentinels", fillcolor="#e58139"] ;
685 -> 686 ;
687 [label="gini = 0.0\nsamples = 161\nvalue = [0, 0, 0, 161]\nclass = Initiators", fillcolor="#d739e5"] ;
685 -> 687 ;
688 [label="pre_spike_information_used <= 0.5\ngini = 0.677\nsamples = 5770\nvalue = [1112, 715, 2752, 1191]\nclass = Duelists", fillcolor="#bcdef6"] ;
0 -> 688 [labeldistance=2.5, labelangle=-45, headlabel="False"] ;
689 [label="pre_spike_shield_used <= 0.5\ngini = 0.627\nsamples = 5008\nvalue = [985, 715, 2752, 556]\nclass = Duelists", fillcolor="#a8d4f4"] ;
688 -> 689 ;
690 [label="self_pre_spike_total_ability_usage_3 <= 0.5\ngini = 0.592\nsamples = 4640\nvalue = [617, 715, 2752, 556]\nclass = Duelists", fillcolor="#98ccf2"] ;
689 -> 690 ;
691 [label="self_pre_spike_total_ability_usage_1 <= 0.5\ngini = 0.732\nsamples = 1726\nvalue = [617, 333, 442, 334]\nclass = Sentinels", fillcolor="#fbeee4"] ;
690 -> 691 ;
692 [label="self_pre_spike_total_ability_usage_2 <= 1.5\ngini = 0.677\nsamples = 538\nvalue = [20, 180, 212, 126]\nclass = Duelists", fillcolor="#edf6fd"] ;
691 -> 692 ;
693 [label="self_pre_spike_total_ability_usage_4 <= 0.5\ngini = 0.663\nsamples = 403\nvalue = [19, 177, 132, 75]\nclass =  Controllers", fillcolor="#e0fbde"] ;
692 -> 693 ;
694 [label="self_pre_spike_total_loadout_value_loss <= 175.0\ngini = 0.6\nsamples = 300\nvalue = [1, 164, 69, 66]\nclass =  Controllers", fillcolor="#b3f4ae"] ;
693 -> 694 ;
695 [label="ally4_pre_spike_avg_health <= 52.472\ngini = 0.18\nsamples = 30\nvalue = [0, 0, 3, 27]\nclass = Initiators", fillcolor="#db4fe8"] ;
694 -> 695 ;
696 [label="gini = 0.0\nsamples = 2\nvalue = [0, 0, 2, 0]\nclass = Duelists", fillcolor="#399de5"] ;
695 -> 696 ;
697 [label="opponent4_ultimate_usage <= 0.5\ngini = 0.069\nsamples = 28\nvalue = [0, 0, 1, 27]\nclass = Initiators", fillcolor="#d840e6"] ;
695 -> 697 ;
698 [label="gini = 0.0\nsamples = 27\nvalue = [0, 0, 0, 27]\nclass = Initiators", fillcolor="#d739e5"] ;
697 -> 698 ;
699 [label="gini = 0.0\nsamples = 1\nvalue = [0, 0, 1, 0]\nclass = Duelists", fillcolor="#399de5"] ;
697 -> 699 ;
700 [label="opponent3_pre_spike_elims <= 2.5\ngini = 0.55\nsamples = 270\nvalue = [1, 164, 66, 39]\nclass =  Controllers", fillcolor="#a7f3a0"] ;
694 -> 700 ;
701 [label="self_pre_spike_avg_ammo_reserve <= 27.75\ngini = 0.498\nsamples = 250\nvalue = [1, 164, 63, 22]\nclass =  Controllers", fillcolor="#9cf194"] ;
700 -> 701 ;
702 [label="self_pre_spike_total_loadout_value_loss <= 3025.0\ngini = 0.422\nsamples = 33\nvalue = [0, 7, 24, 2]\nclass = Duelists", fillcolor="#7ebfee"] ;
701 -> 702 ;
703 [label="self_pre_spike_total_ammo_mag_loss <= 313.5\ngini = 0.156\nsamples = 24\nvalue = [0, 1, 22, 1]\nclass = Duelists", fillcolor="#4aa6e7"] ;
702 -> 703 ;
704 [label="self_pre_spike_total_health_loss <= 150.0\ngini = 0.083\nsamples = 23\nvalue = [0, 1, 22, 0]\nclass = Duelists", fillcolor="#42a1e6"] ;
703 -> 704 ;
705 [label="gini = 0.0\nsamples = 21\nvalue = [0, 0, 21, 0]\nclass = Duelists", fillcolor="#399de5"] ;
704 -> 705 ;
706 [label="gini = 0.5\nsamples = 2\nvalue = [0, 1, 1, 0]\nclass =  Controllers", fillcolor="#ffffff"] ;
704 -> 706 ;
707 [label="gini = 0.0\nsamples = 1\nvalue = [0, 0, 0, 1]\nclass = Initiators", fillcolor="#d739e5"] ;
703 -> 707 ;
708 [label="self_pre_spike_avg_credits <= 1425.0\ngini = 0.494\nsamples = 9\nvalue = [0, 6, 2, 1]\nclass =  Controllers", fillcolor="#96f08e"] ;
702 -> 708 ;
709 [label="gini = 0.444\nsamples = 3\nvalue = [0, 0, 2, 1]\nclass = Duelists", fillcolor="#9ccef2"] ;
708 -> 709 ;
710 [label="gini = 0.0\nsamples = 6\nvalue = [0, 6, 0, 0]\nclass =  Controllers", fillcolor="#47e539"] ;
708 -> 710 ;
711 [label="round_info_ally_side_attacker <= 0.5\ngini = 0.436\nsamples = 217\nvalue = [1, 157, 39, 20]\nclass =  Controllers", fillcolor="#85ee7c"] ;
701 -> 711 ;
712 [label="ally2_pre_spike_avg_health <= 72.75\ngini = 0.6\nsamples = 80\nvalue = [0, 40, 29, 11]\nclass =  Controllers", fillcolor="#d7f9d4"] ;
711 -> 712 ;
713 [label="self_pre_spike_total_loadout_value_loss <= 800.0\ngini = 0.137\nsamples = 27\nvalue = [0, 25, 2, 0]\nclass =  Controllers", fillcolor="#56e749"] ;
712 -> 713 ;
